{"learner":{"attributes":{"scikit_learn":"{\"_estimator_type\": \"regressor\"}"},"feature_names":["Present_Price","Kms_Driven","Fuel_Type","Seller_Type","Transmission","Owner","Age"],"feature_types":["float","int","int","int","int","int","int"],"gradient_booster":{"model":{"gbtree_model_param":{"num_parallel_tree":"1","num_trees":"100"},"iteration_indptr":[0,1,2,3,4,5,6,7,8,9,10,11,12,13,14,15,16,17,18,19,20,21,22,23,24,25,26,27,28,29,30,31,32,33,34,35,36,37,38,39,40,41,42,43,44,45,46,47,48,49,50,51,52,53,54,55,56,57,58,59,60,61,62,63,64,65,66,67,68,69,70,71,72,73,74,75,76,77,78,79,80,81,82,83,84,85,86,87,88,89,90,91,92,93,94,95,96,97,98,99,100],"tree_info":[0,0,0,0,0,0,0,0,0,0,0,0,0,0,0,0,0,0,0,0,0,0,0,0,0,0,0,0,0,0,0,0,0,0,0,0,0,0,0,0,0,0,0,0,0,0,0,0,0,0,0,0,0,0,0,0,0,0,0,0,0,0,0,0,0,0,0,0,0,0,0,0,0,0,0,0,0,0,0,0,0,0,0,0,0,0,0,0,0,0,0,0,0,0,0,0,0,0,0,0],"trees":[{"base_weights":[-4.7683717E-8,-2.25205E0,4.142922E0,-1.1353275E0,-4.953214E-1,2.98344E0,4.165623E0,9.6221834E-2,-1.5072546E0,4.923851E0,8.556955E-1,-4.1147548E-1,5.001636E-1,-1.6005174E0,-1.0033448E-2,3.9655323E0,2.8377995E0,1.4423835E0,-1.1955003E0,9.175518E-1,2.473458E-2,-8.3816886E-1,-5.341345E-1,5.242467E-3,-9.757519E-3,8.7604326E-1,1.5765692E0,8.1860554E-1,2.673704E0,-7.9004306E-1,-4.572121E-1,1.736646E-1,3.7086123E-1,-5.093089E-2,1.8123744E-1,-1.6626254E-1,-3.3801E-1,3.12872E-1,-9.961207E-2,4.3292433E-1,1.232388E0,-2.5326258E-1,-6.9757536E-2],"categories":[],"categories_nodes":[],"categories_segments":[],"categories_sizes":[],"default_left":[0,0,0,0,0,0,0,0,0,0,0,0,0,0,0,0,0,0,0,0,0,0,0,0,0,0,0,0,0,0,0,0,0,0,0,0,0,0,0,0,0,0,0],"id":0,"left_children":[1,3,5,-1,7,9,-1,11,13,15,17,-1,19,21,23,25,-1,27,29,31,33,35,-1,-1,-1,-1,-1,37,39,41,-1,-1,-1,-1,-1,-1,-1,-1,-1,-1,-1,-1,-1],"loss_changes":[2.80835E3,5.2305896E2,1.1559753E3,0E0,5.5216434E1,3.9214166E2,0E0,3.5667614E1,4.731537E0,1.7981042E2,5.8284737E1,0E0,9.303914E0,2.8971252E0,2.4244925E-3,4.2628113E1,0E0,2.6229897E1,2.6124096E-1,1.9823303E0,2.69452E0,3.1024456E-2,0E0,0E0,0E0,0E0,0E0,7.056656E0,1.525222E1,1.50876045E-2,0E0,0E0,0E0,0E0,0E0,0E0,0E0,0E0,0E0,0E0,0E0,0E0,0E0],"parents":[2147483647,0,0,1,1,2,2,4,4,5,5,7,7,8,8,9,9,10,10,12,12,13,13,14,14,15,15,17,17,18,18,19,19,20,20,21,21,27,27,28,28,29,29],"right_children":[2,4,6,-1,8,10,-1,12,14,16,18,-1,20,22,24,26,-1,28,30,32,34,36,-1,-1,-1,-1,-1,38,40,42,-1,-1,-1,-1,-1,-1,-1,-1,-1,-1,-1,-1,-1],"split_conditions":[8.06E0,3.46E0,2.539E1,-1.1353275E0,1E1,9E0,4.165623E0,5.7E0,1E0,1.37E1,1.4E1,-4.1147548E-1,3.1604E4,1.1E1,6.8E0,1.1E1,2.8377995E0,1.4E1,9E4,6.49E0,7.49E0,5.6E4,-5.341345E-1,5.242467E-3,-9.757519E-3,8.7604326E-1,1.5765692E0,1.2E1,1E0,1.864E1,-4.572121E-1,1.736646E-1,3.7086123E-1,-5.093089E-2,1.8123744E-1,-1.6626254E-1,-3.3801E-1,3.12872E-1,-9.961207E-2,4.3292433E-1,1.232388E0,-2.5326258E-1,-6.9757536E-2],"split_indices":[0,0,0,0,6,6,0,0,4,0,6,0,1,6,0,0,0,0,1,0,0,1,0,0,0,0,0,6,2,0,0,0,0,0,0,0,0,0,0,0,0,0,0],"split_type":[0,0,0,0,0,0,0,0,0,0,0,0,0,0,0,0,0,0,0,0,0,0,0,0,0,0,0,0,0,0,0,0,0,0,0,0,0,0,0,0,0,0,0],"sum_hessian":[2.99E2,1.94E2,1.05E2,1.03E2,9.1E1,9.5E1,1E1,5.8E1,3.3E1,4.9E1,4.6E1,1.2E1,4.6E1,3.1E1,2E0,4.2E1,7E0,3.6E1,1E1,2.4E1,2.2E1,7E0,2.4E1,1E0,1E0,2.5E1,1.7E1,2.5E1,1.1E1,6E0,4E0,1.3E1,1.1E1,1.7E1,5E0,5E0,2E0,2.1E1,4E0,7E0,4E0,5E0,1E0],"tree_param":{"num_deleted":"0","num_feature":"7","num_nodes":"43","size_leaf_vector":"1"}},{"base_weights":[2.8798185E-2,-1.5628201E0,3.0434136E0,-2.5812685E0,-2.182963E-1,2.185444E0,1.0098478E1,-8.524634E-1,-5.858595E-1,2.178456E-1,-9.9912375E-1,3.3683236E0,2.721345E-1,3.4340734E0,1.4630985E0,-2.3906334E-1,3.790689E-1,-1.0671465E0,-8.528392E-3,2.742201E0,2.2614992E0,7.4276155E-1,-9.077804E-1,6.640674E-1,7.890766E-2,-7.666795E-1,-1.2633586E0,4.456115E-3,-8.293891E-3,1.9820324E0,3.6144993E0,2.2446553E-1,1.9456563E0,-3.5035512E-1,-1.7769997E-1,1.2528661E-1,2.6887444E-1,-6.0718928E-2,1.2015604E-1,-2.8695497E-1,-1.5142119E-1,-3.9065644E-1,-1.0213738E-1,6.1385065E-1,1.8311692E-2,1.1458017E0,5.0600386E-1,1.1798075E-1,-7.048633E-2,7.1306E-1,1.304051E-1],"categories":[],"categories_nodes":[],"categories_segments":[],"categories_sizes":[],"default_left":[0,0,0,0,0,0,0,0,0,0,0,0,0,0,0,0,0,0,0,0,0,0,0,0,0,0,0,0,0,0,0,0,0,0,0,0,0,0,0,0,0,0,0,0,0,0,0,0,0,0,0],"id":1,"left_children":[1,3,5,7,9,11,13,-1,-1,15,17,19,21,-1,-1,-1,23,25,27,29,-1,31,33,35,37,39,41,-1,-1,43,45,47,49,-1,-1,-1,-1,-1,-1,-1,-1,-1,-1,-1,-1,-1,-1,-1,-1,-1,-1],"loss_changes":[1.4441914E3,2.6919415E2,6.0744543E2,1.276947E1,2.9505089E1,2.1182556E2,2.1622437E1,0E0,0E0,9.463506E0,2.0797749E0,1.3076257E2,2.122036E1,0E0,0E0,0E0,4.1393294E0,7.4111176E-1,1.7517015E-3,2.7316833E1,0E0,1.6396568E1,2.1066475E-1,1.0562038E0,2.3428364E0,2.1337986E-1,1.3002968E-1,0E0,0E0,3.5712814E0,2.6405334E0,1.6434354E0,4.1791897E0,0E0,0E0,0E0,0E0,0E0,0E0,0E0,0E0,0E0,0E0,0E0,0E0,0E0,0E0,0E0,0E0,0E0,0E0],"parents":[2147483647,0,0,1,1,2,2,3,3,4,4,5,5,6,6,9,9,10,10,11,11,12,12,16,16,17,17,18,18,19,19,21,21,22,22,23,23,24,24,25,25,26,26,29,29,30,30,31,31,32,32],"right_children":[2,4,6,8,10,12,14,-1,-1,16,18,20,22,-1,-1,-1,24,26,28,30,-1,32,34,36,38,40,42,-1,-1,44,46,48,50,-1,-1,-1,-1,-1,-1,-1,-1,-1,-1,-1,-1,-1,-1,-1,-1,-1,-1],"split_conditions":[8.1E0,4.41E0,2.539E1,1.26E0,1E1,1E1,8E4,-8.524634E-1,-5.858595E-1,5.7E0,1E0,1.489E1,1.4E1,3.4340734E0,1.4630985E0,-2.3906334E-1,3.1604E4,1.2E1,6.8E0,1.1E1,2.2614992E0,1.861E1,1.248E1,6.49E0,7.13E0,5.59E0,1E0,4.456115E-3,-8.293891E-3,6.2E4,9E0,1.2E1,6E4,-3.5035512E-1,-1.7769997E-1,1.2528661E-1,2.6887444E-1,-6.0718928E-2,1.2015604E-1,-2.8695497E-1,-1.5142119E-1,-3.9065644E-1,-1.0213738E-1,6.1385065E-1,1.8311692E-2,1.1458017E0,5.0600386E-1,1.1798075E-1,-7.048633E-2,7.1306E-1,1.304051E-1],"split_indices":[0,0,0,0,6,6,1,0,0,0,4,0,6,0,0,0,1,6,0,0,0,0,0,0,0,0,5,0,0,1,6,6,1,0,0,0,0,0,0,0,0,0,0,0,0,0,0,0,0,0,0],"split_type":[0,0,0,0,0,0,0,0,0,0,0,0,0,0,0,0,0,0,0,0,0,0,0,0,0,0,0,0,0,0,0,0,0,0,0,0,0,0,0,0,0,0,0,0,0,0,0,0,0,0,0],"sum_hessian":[2.99E2,1.96E2,1.03E2,1.11E2,8.5E1,9.3E1,1E1,7.6E1,3.5E1,5.5E1,3E1,5.7E1,3.6E1,7E0,3E0,7E0,4.8E1,2.8E1,2E0,5.1E1,6E0,2.6E1,1E1,2.4E1,2.4E1,1.3E1,1.5E1,1E0,1E0,2.9E1,2.2E1,1.9E1,7E0,4E0,6E0,1.3E1,1.1E1,1.3E1,1.1E1,6E0,7E0,1.4E1,1E0,2.8E1,1E0,1.9E1,3E0,1.4E1,5E0,5E0,2E0],"tree_param":{"num_deleted":"0","num_feature":"7","num_nodes":"51","size_leaf_vector":"1"}},{"base_weights":[4.5647904E-2,-6.927384E-1,3.4998772E0,-1.7097087E0,3.54668E-1,2.3915823E0,7.5141325E0,-1.8849617E0,-8.4292454E-1,6.5460193E-1,-6.4010406E-1,4.7427926E0,1.328443E0,2.4481E0,9.2124563E-1,-6.0356736E-1,-4.5634928E-1,-6.364837E-1,-3.1429476E-1,4.5531534E-2,1.1364024E0,-2.7705294E-1,-1.0656245E0,9.6555203E-1,1.7954127E0,1.9293385E0,-1.2637106E-1,-2.1928547E-1,-2.1757627E-1,3.1464133E-1,-1.0987162E-1,1.5555459E0,8.127285E-1,-1.5644944E-1,-1.8241671E-3,-8.681678E-2,-3.3185852E-1,1.2135525E0,2.8284123E0,3.164668E-1,-1.4230223E-1,-1.7749072E-3,-8.584724E-2,1.3270189E-1,-5.3711522E-2,-5.032165E-2,8.377991E-2,2.31855E-1,6.430166E-1,2.7922362E-1,1.0270045E-1,-6.202538E-2,6.104033E-2,4.325328E-1,-3.1157566E-2,2.043869E-1,9.034924E-1,1.3056651E-1,2.7666904E-2],"categories":[],"categories_nodes":[],"categories_segments":[],"categories_sizes":[],"default_left":[0,0,0,0,0,0,0,0,0,0,0,0,0,0,0,0,0,0,0,0,0,0,0,0,0,0,0,0,0,0,0,0,0,0,0,0,0,0,0,0,0,0,0,0,0,0,0,0,0,0,0,0,0,0,0,0,0,0,0],"id":2,"left_children":[1,3,5,7,9,11,13,15,17,19,21,23,25,-1,-1,-1,-1,27,-1,29,31,33,35,-1,-1,37,39,-1,41,43,45,47,49,-1,51,-1,-1,53,55,57,-1,-1,-1,-1,-1,-1,-1,-1,-1,-1,-1,-1,-1,-1,-1,-1,-1,-1,-1],"loss_changes":[7.675912E2,2.647713E2,2.178252E2,1.7551361E1,3.7118015E1,1.0118501E2,6.5250854E0,1.7419434E0,3.0525017E-1,2.7826042E1,4.184849E0,5.3476562E0,2.7343739E1,0E0,0E0,0E0,0E0,3.9498806E-1,0E0,1.832852E0,5.926056E0,1.1427807E0,8.927727E-2,0E0,0E0,1.072554E1,1.6910547E0,0E0,5.637054E-2,1.0878688E0,6.773571E-1,8.465721E0,1.4578342E0,0E0,4.206961E-1,0E0,0E0,4.3590374E0,1.488945E0,9.301275E-2,0E0,0E0,0E0,0E0,0E0,0E0,0E0,0E0,0E0,0E0,0E0,0E0,0E0,0E0,0E0,0E0,0E0,0E0,0E0],"parents":[2147483647,0,0,1,1,2,2,3,3,4,4,5,5,6,6,7,7,8,8,9,9,10,10,11,11,12,12,17,17,19,19,20,20,21,21,22,22,25,25,26,26,28,28,29,29,30,30,31,31,32,32,34,34,37,37,38,38,39,39],"right_children":[2,4,6,8,10,12,14,16,18,20,22,24,26,-1,-1,-1,-1,28,-1,30,32,34,36,-1,-1,38,40,-1,42,44,46,48,50,-1,52,-1,-1,54,56,58,-1,-1,-1,-1,-1,-1,-1,-1,-1,-1,-1,-1,-1,-1,-1,-1,-1,-1,-1],"split_conditions":[1.25E1,4.99E0,2.539E1,3.46E0,1.1E1,8E0,1.1E1,1.17E0,3.86E4,7.5E0,1.3E1,1.37E1,6.9341E4,2.4481E0,9.2124563E-1,-6.0356736E-1,-4.5634928E-1,2.8569E4,-3.1429476E-1,2.48E4,8E0,7.85E0,6.8E0,9.6555203E-1,1.7954127E0,1E0,1.4E1,-2.1928547E-1,3.0753E4,9E0,1E0,8.89E0,1E1,-1.5644944E-1,1E0,-8.681678E-2,-3.3185852E-1,1.2E1,1.346E1,7.5E4,-1.4230223E-1,-1.7749072E-3,-8.584724E-2,1.3270189E-1,-5.3711522E-2,-5.032165E-2,8.377991E-2,2.31855E-1,6.430166E-1,2.7922362E-1,1.0270045E-1,-6.202538E-2,6.104033E-2,4.325328E-1,-3.1157566E-2,2.043869E-1,9.034924E-1,1.3056651E-1,2.7666904E-2],"split_indices":[0,0,0,0,6,6,6,0,1,0,6,0,1,0,0,0,0,1,0,1,6,0,0,0,0,2,6,0,1,6,4,0,6,0,2,0,0,6,0,1,0,0,0,0,0,0,0,0,0,0,0,0,0,0,0,0,0,0,0],"split_type":[0,0,0,0,0,0,0,0,0,0,0,0,0,0,0,0,0,0,0,0,0,0,0,0,0,0,0,0,0,0,0,0,0,0,0,0,0,0,0,0,0,0,0,0,0,0,0,0,0,0,0,0,0,0,0,0,0,0,0],"sum_hessian":[2.99E2,2.47E2,5.2E1,1.25E2,1.22E2,4.2E1,1E1,1.03E2,2.2E1,9.4E1,2.8E1,1.2E1,3E1,8E0,2E0,7.3E1,3E1,1.3E1,9E0,4.2E1,5.2E1,1.6E1,1.2E1,7E0,5E0,2.1E1,9E0,1E1,3E0,1.5E1,2.7E1,2.1E1,3.1E1,8E0,8E0,1E0,1.1E1,1.3E1,8E0,4E0,5E0,1E0,2E0,1.2E1,3E0,2.4E1,3E0,1E1,1.1E1,2.4E1,7E0,4E0,4E0,1.1E1,2E0,1E0,7E0,2E0,2E0],"tree_param":{"num_deleted":"0","num_feature":"7","num_nodes":"59","size_leaf_vector":"1"}},{"base_weights":[5.4511946E-2,-4.884974E-1,2.5943573E0,-1.2101382E0,2.547159E-1,1.6846433E0,5.26389E0,-1.333472E0,-6.3040835E-1,5.340219E-1,-3.1692103E-1,2.5806093E0,6.148483E-1,5.8015337E0,-1.7817539E-1,-4.5179552E-1,-1.1951007E0,-1.0911114E-1,-7.1883357E-1,2.1526624E-1,1.224553E0,-9.923815E-2,-7.7814275E-1,9.3825346E-1,1.7493882E0,1.1037662E0,1.1448223E-1,2.0457435E0,9.0391475E-1,-2.3587014E-1,-3.749089E-1,-4.136564E-2,-7.4652493E-1,5.816218E-1,8.547986E-2,1.2805533E0,-2.6318552E-2,-3.489433E-1,1.2545624E-1,-5.4867554E-1,-9.544085E-1,1.1598638E0,2.2248447E0,6.2543905E-1,4.994692E-1,1.640698E-1,-1.16036594E-1,-2.6482603E-1,-1.3357995E-1,4.9452786E-4,1.8687923E-1,-9.33537E-3,8.744125E-2,4.6443948E-1,2.7434132E-1,-1.1395757E-1,7.943273E-3,-2.0668905E-2,9.852627E-2,-1.8042132E-1,-2.6936103E-2,-3.090496E-1,-8.6343676E-2,4.6488625E-1,2.0821106E-1,1.737289E-1,7.474524E-1,2.2122018E-1,-6.949568E-3,2.2133494E-2,-5.7481386E-2],"categories":[],"categories_nodes":[],"categories_segments":[],"categories_sizes":[],"default_left":[0,0,0,0,0,0,0,0,0,0,0,0,0,0,0,0,0,0,0,0,0,0,0,0,0,0,0,0,0,0,0,0,0,0,0,0,0,0,0,0,0,0,0,0,0,0,0,0,0,0,0,0,0,0,0,0,0,0,0,0,0,0,0,0,0,0,0,0,0,0,0],"id":3,"left_children":[1,3,5,7,9,11,13,15,17,19,21,23,25,27,-1,-1,29,-1,31,33,35,37,39,-1,41,43,45,-1,-1,-1,-1,-1,47,49,51,53,-1,55,57,59,61,63,65,67,-1,-1,69,-1,-1,-1,-1,-1,-1,-1,-1,-1,-1,-1,-1,-1,-1,-1,-1,-1,-1,-1,-1,-1,-1,-1,-1],"loss_changes":[4.1501526E2,1.3331885E2,1.1984332E2,8.168411E0,1.9807621E1,3.7711823E1,4.4388E1,6.588898E-1,3.045597E-1,1.8005583E1,4.0391817E0,4.529892E0,4.766397E0,1.350473E1,0E0,0E0,4.0142822E-1,0E0,1.7054844E-1,2.7080646E0,2.0230331E0,1.6708903E0,2.1533966E-3,0E0,5.0270844E-1,1.6427498E0,1.1599435E0,0E0,0E0,0E0,0E0,0E0,2.6357937E-1,3.5834408E-1,1.0658658E0,1.0331726E0,0E0,1.7254496E-1,6.5377426E-1,1.3957477E-1,6.500721E-3,1.9542027E-1,7.514801E-1,5.254135E-1,0E0,0E0,1.2888777E-1,0E0,0E0,0E0,0E0,0E0,0E0,0E0,0E0,0E0,0E0,0E0,0E0,0E0,0E0,0E0,0E0,0E0,0E0,0E0,0E0,0E0,0E0,0E0,0E0],"parents":[2147483647,0,0,1,1,2,2,3,3,4,4,5,5,6,6,7,7,8,8,9,9,10,10,11,11,12,12,13,13,16,16,18,18,19,19,20,20,21,21,22,22,24,24,25,25,26,26,32,32,33,33,34,34,35,35,37,37,38,38,39,39,40,40,41,41,42,42,43,43,46,46],"right_children":[2,4,6,8,10,12,14,16,18,20,22,24,26,28,-1,-1,30,-1,32,34,36,38,40,-1,42,44,46,-1,-1,-1,-1,-1,48,50,52,54,-1,56,58,60,62,64,66,68,-1,-1,70,-1,-1,-1,-1,-1,-1,-1,-1,-1,-1,-1,-1,-1,-1,-1,-1,-1,-1,-1,-1,-1,-1,-1,-1],"split_conditions":[1.25E1,4.99E0,2.315E1,3.45E0,1E1,9E0,1.35154E5,8E-1,8E0,8.89E0,1.3E1,8E0,6E4,4.8E4,-1.7817539E-1,-4.5179552E-1,4.3E3,-1.0911114E-1,5.4E3,1.65E4,6.2E4,7.85E0,1.5E1,9.3825346E-1,1E0,1E0,1.2E1,2.0457435E0,9.0391475E-1,-2.3587014E-1,-3.749089E-1,-4.136564E-2,4.6E0,3E3,7.49E0,3.4E4,-2.6318552E-2,5.42E4,1E0,1.021E1,1E0,2.2E4,1.346E1,1.2E1,4.994692E-1,1.640698E-1,1.4E1,-2.6482603E-1,-1.3357995E-1,4.9452786E-4,1.8687923E-1,-9.33537E-3,8.744125E-2,4.6443948E-1,2.7434132E-1,-1.1395757E-1,7.943273E-3,-2.0668905E-2,9.852627E-2,-1.8042132E-1,-2.6936103E-2,-3.090496E-1,-8.6343676E-2,4.6488625E-1,2.0821106E-1,1.737289E-1,7.474524E-1,2.2122018E-1,-6.949568E-3,2.2133494E-2,-5.7481386E-2],"split_indices":[0,0,0,0,6,6,1,0,6,0,6,6,1,1,0,0,1,0,1,1,1,0,6,0,2,2,6,0,0,0,0,0,0,1,0,1,0,1,2,0,3,1,0,6,0,0,6,0,0,0,0,0,0,0,0,0,0,0,0,0,0,0,0,0,0,0,0,0,0,0,0],"split_type":[0,0,0,0,0,0,0,0,0,0,0,0,0,0,0,0,0,0,0,0,0,0,0,0,0,0,0,0,0,0,0,0,0,0,0,0,0,0,0,0,0,0,0,0,0,0,0,0,0,0,0,0,0,0,0,0,0,0,0,0,0,0,0,0,0,0,0,0,0,0,0],"sum_hessian":[2.99E2,2.47E2,5.2E1,1.25E2,1.22E2,4E1,1.2E1,1.02E2,2.3E1,8.2E1,4E1,2.1E1,1.9E1,1.1E1,1E0,4.1E1,6.1E1,7E0,1.6E1,5.7E1,2.5E1,2.8E1,1.2E1,1.1E1,1E1,9E0,1E1,7E0,4E0,9E0,5.2E1,1E0,1.5E1,1.4E1,4.3E1,2.4E1,1E0,1.3E1,1.5E1,7E0,5E0,6E0,4E0,6E0,3E0,3E0,7E0,9E0,6E0,1E0,1.3E1,2.8E1,1.5E1,1.2E1,1.2E1,1.2E1,1E0,8E0,7E0,6E0,1E0,4E0,1E0,2E0,4E0,1E0,3E0,5E0,1E0,2E0,5E0],"tree_param":{"num_deleted":"0","num_feature":"7","num_nodes":"71","size_leaf_vector":"1"}},{"base_weights":[5.4431915E-2,-1.7838559E-1,3.3227963E0,-8.4537506E-1,3.932395E-1,4.269233E0,4.0290502E-1,-9.7002935E-1,-5.180533E-1,7.484613E-1,8.702181E-3,1.4747249E0,7.440499E-1,3.27308E-1,-2.1391243E-1,-3.034661E-1,-2.3036642E-1,-4.4547284E-1,-3.070857E-1,2.2801007E-1,1.276411E0,2.1093984E-1,-3.961212E-1,5.1336925E-2,-1.5144908E-1,-5.5484086E-1,-3.7953198E-1,3.366233E-1,-1.4235327E-1,9.3293273E-1,1.5888654E0,1.5814742E-2,6.651774E-1,-5.0388706E-1,-1.0413289E-1,-2.6714087E-3,2.5773026E-2,-7.911987E-2,-1.8931194E-1,-4.9728174E-2,-1.2034442E-1,4.9670342E-2,1.2550189E-1,-6.801415E-2,9.253378E-2,3.4929127E-1,1.8502481E-1,3.2076943E-1,6.509125E-1,-3.734926E-2,5.398732E-2,9.620739E-2,2.283874E-1,-1.0767827E-1,-2.2019546E-1,8.511544E-4,-5.066471E-2],"categories":[],"categories_nodes":[],"categories_segments":[],"categories_sizes":[],"default_left":[0,0,0,0,0,0,0,0,0,0,0,0,0,0,0,0,0,0,0,0,0,0,0,0,0,0,0,0,0,0,0,0,0,0,0,0,0,0,0,0,0,0,0,0,0,0,0,0,0,0,0,0,0,0,0,0,0],"id":4,"left_children":[1,3,5,7,9,11,13,15,17,19,21,-1,-1,-1,23,-1,-1,25,-1,27,29,31,33,35,-1,37,39,41,43,45,47,49,51,53,55,-1,-1,-1,-1,-1,-1,-1,-1,-1,-1,-1,-1,-1,-1,-1,-1,-1,-1,-1,-1,-1,-1],"loss_changes":[2.2887247E2,1.0746872E2,5.354973E1,4.80175E0,2.0756084E1,5.1580505E0,2.7800567E0,3.8604736E-3,9.38385E-1,2.1415966E1,6.1419773E0,0E0,0E0,0E0,3.3457947E-1,0E0,0E0,4.1834354E-2,0E0,1.6972003E0,2.703228E0,4.421138E0,7.3418784E-1,7.0132324E-3,0E0,7.7577114E-2,4.902792E-2,3.780334E-1,4.5022577E-1,8.181877E-1,3.414772E0,8.5153025E-1,2.5250912E-1,3.369403E-1,5.5889204E-2,0E0,0E0,0E0,0E0,0E0,0E0,0E0,0E0,0E0,0E0,0E0,0E0,0E0,0E0,0E0,0E0,0E0,0E0,0E0,0E0,0E0,0E0],"parents":[2147483647,0,0,1,1,2,2,3,3,4,4,5,5,6,6,7,7,8,8,9,9,10,10,14,14,17,17,19,19,20,20,21,21,22,22,23,23,25,25,26,26,27,27,28,28,29,29,30,30,31,31,32,32,33,33,34,34],"right_children":[2,4,6,8,10,12,14,16,18,20,22,-1,-1,-1,24,-1,-1,26,-1,28,30,32,34,36,-1,38,40,42,44,46,48,50,52,54,56,-1,-1,-1,-1,-1,-1,-1,-1,-1,-1,-1,-1,-1,-1,-1,-1,-1,-1,-1,-1,-1,-1],"split_conditions":[1.864E1,5.7E0,1.2E1,1.78E0,9E0,9E0,2.091E1,1.17E0,1.3E1,8.89E0,1.2E1,1.4747249E0,7.440499E-1,3.27308E-1,2.315E1,-3.034661E-1,-2.3036642E-1,3.46E0,-3.070857E-1,3.5934E4,1E0,9.83E0,1.248E1,2.283E1,-1.5144908E-1,4.1E3,1.098E4,5.97E0,1E0,2.3E4,1.18E1,7.15E0,1E1,1.5E1,1.4E1,-2.6714087E-3,2.5773026E-2,-7.911987E-2,-1.8931194E-1,-4.9728174E-2,-1.2034442E-1,4.9670342E-2,1.2550189E-1,-6.801415E-2,9.253378E-2,3.4929127E-1,1.8502481E-1,3.2076943E-1,6.509125E-1,-3.734926E-2,5.398732E-2,9.620739E-2,2.283874E-1,-1.0767827E-1,-2.2019546E-1,8.511544E-4,-5.066471E-2],"split_indices":[0,0,6,0,6,6,0,0,6,0,6,0,0,0,0,0,0,0,0,1,2,0,0,0,0,1,1,0,4,1,0,0,0,6,6,0,0,0,0,0,0,0,0,0,0,0,0,0,0,0,0,0,0,0,0,0,0],"split_type":[0,0,0,0,0,0,0,0,0,0,0,0,0,0,0,0,0,0,0,0,0,0,0,0,0,0,0,0,0,0,0,0,0,0,0,0,0,0,0,0,0,0,0,0,0,0,0,0,0,0,0,0,0,0,0,0,0],"sum_hessian":[2.99E2,2.8E2,1.9E1,1.29E2,1.51E2,1.4E1,5E0,9.2E1,3.7E1,7.8E1,7.3E1,9E0,5E0,2E0,3E0,7.3E1,1.9E1,3.4E1,3E0,4E1,3.8E1,4.9E1,2.4E1,2E0,1E0,1E1,2.4E1,3.1E1,9E0,2E1,1.8E1,3.5E1,1.4E1,1.7E1,7E0,1E0,1E0,3E0,7E0,3E0,2.1E1,1.1E1,2E1,8E0,1E0,1E1,1E1,1.1E1,7E0,1.9E1,1.6E1,4E0,1E1,1.2E1,5E0,3E0,4E0],"tree_param":{"num_deleted":"0","num_feature":"7","num_nodes":"57","size_leaf_vector":"1"}},{"base_weights":[4.746081E-2,-1.234827E-1,2.446844E0,-6.016042E-1,2.8624943E-1,3.1363814E0,3.151935E-1,-6.7575717E-1,-3.4299475E-1,4.3582332E-1,-2.2620675E-1,3.4301267E0,4.4131497E-1,2.6184636E-1,-1.8182564E-1,-5.620337E-1,-2.3220016E-1,-2.9662487E-1,-2.0307161E-1,2.50958E-1,1.0495932E0,-7.811814E-2,-3.617283E-1,1.2348398E0,1.12371E0,4.3636322E-2,-1.2873173E-1,-1.75679E-1,-1.0009009E-1,-7.95997E-2,-3.0975267E-1,9.728284E-2,4.9844944E-1,7.2930074E-1,1.5211604E0,-1.43933E-1,7.7500425E-2,-4.4839418E-1,-1.1366423E-1,4.8408896E-1,7.158895E-2,-2.2707225E-3,2.1907069E-2,-3.593856E-2,1.1869669E-4,-1.05335526E-1,-6.1295725E-2,7.333457E-3,6.7335725E-2,2.4864031E-1,7.9670675E-2,3.3717483E-1,1.4732115E-1,5.82451E-1,2.752044E-1,1.9247228E-2,-6.383277E-2,4.2055372E-2,3.333664E-3,-3.057933E-2,-1.4063156E-1,-6.0348273E-3,-3.8505197E-2],"categories":[],"categories_nodes":[],"categories_segments":[],"categories_sizes":[],"default_left":[0,0,0,0,0,0,0,0,0,0,0,0,0,0,0,0,0,0,0,0,0,0,0,0,0,0,0,0,0,0,0,0,0,0,0,0,0,0,0,0,0,0,0,0,0,0,0,0,0,0,0,0,0,0,0,0,0,0,0,0,0,0,0],"id":5,"left_children":[1,3,5,7,9,11,13,15,17,19,21,23,-1,-1,25,27,-1,29,-1,31,33,35,37,39,-1,41,-1,-1,-1,43,45,47,49,51,53,55,57,59,61,-1,-1,-1,-1,-1,-1,-1,-1,-1,-1,-1,-1,-1,-1,-1,-1,-1,-1,-1,-1,-1,-1,-1,-1],"loss_changes":[1.2334983E2,5.5220608E1,2.8408493E1,2.2611809E0,1.1749395E1,2.2918549E0,1.821611E0,6.8224335E-1,2.7919817E-1,1.3125437E1,6.741644E-1,3.6879578E0,0E0,0E0,2.4173366E-1,7.371426E-2,0E0,5.796671E-2,0E0,3.450572E0,2.9686813E0,1.9551112E-1,3.3600998E-1,7.470031E-1,0E0,5.067076E-3,0E0,0E0,0E0,9.693759E-3,4.6015978E-2,5.317542E-1,2.4725313E0,1.1402454E0,7.5704956E-1,1.9988322E-1,2.3411166E-2,4.3998957E-2,5.6614056E-3,0E0,0E0,0E0,0E0,0E0,0E0,0E0,0E0,0E0,0E0,0E0,0E0,0E0,0E0,0E0,0E0,0E0,0E0,0E0,0E0,0E0,0E0,0E0,0E0],"parents":[2147483647,0,0,1,1,2,2,3,3,4,4,5,5,6,6,7,7,8,8,9,9,10,10,11,11,14,14,15,15,17,17,19,19,20,20,21,21,22,22,23,23,25,25,29,29,30,30,31,31,32,32,33,33,34,34,35,35,36,36,37,37,38,38],"right_children":[2,4,6,8,10,12,14,16,18,20,22,24,-1,-1,26,28,-1,30,-1,32,34,36,38,40,-1,42,-1,-1,-1,44,46,48,50,52,54,56,58,60,62,-1,-1,-1,-1,-1,-1,-1,-1,-1,-1,-1,-1,-1,-1,-1,-1,-1,-1,-1,-1,-1,-1,-1,-1],"split_conditions":[1.864E1,5.7E0,1.2E1,2.37E0,1.1E1,8E4,2.091E1,9E0,5.8E4,1.204E1,1.3E1,1E0,4.4131497E-1,2.6184636E-1,2.315E1,1.6E0,-2.3220016E-1,7E0,-2.0307161E-1,8.5E0,1E0,9.54E0,1.248E1,1.977E1,1.12371E0,2.283E1,-1.2873173E-1,-1.75679E-1,-1.0009009E-1,3.76E0,4.6E0,7.15E0,8E0,2.3E4,3.8488E4,3.55E4,1.2E1,6.8E0,5.0024E4,4.8408896E-1,7.158895E-2,-2.2707225E-3,2.1907069E-2,-3.593856E-2,1.1869669E-4,-1.05335526E-1,-6.1295725E-2,7.333457E-3,6.7335725E-2,2.4864031E-1,7.9670675E-2,3.3717483E-1,1.4732115E-1,5.82451E-1,2.752044E-1,1.9247228E-2,-6.383277E-2,4.2055372E-2,3.333664E-3,-3.057933E-2,-1.4063156E-1,-6.0348273E-3,-3.8505197E-2],"split_indices":[0,0,6,0,6,1,0,6,1,0,6,4,0,0,0,0,0,6,0,0,2,0,0,0,0,0,0,0,0,0,0,0,6,1,1,1,6,0,1,0,0,0,0,0,0,0,0,0,0,0,0,0,0,0,0,0,0,0,0,0,0,0,0],"split_type":[0,0,0,0,0,0,0,0,0,0,0,0,0,0,0,0,0,0,0,0,0,0,0,0,0,0,0,0,0,0,0,0,0,0,0,0,0,0,0,0,0,0,0,0,0,0,0,0,0,0,0,0,0,0,0,0,0,0,0,0,0,0,0],"sum_hessian":[2.99E2,2.8E2,1.9E1,1.29E2,1.51E2,1.4E1,5E0,9.9E1,3E1,1.17E2,3.4E1,1.1E1,3E0,2E0,3E0,4.9E1,5E1,2.8E1,2E0,9.1E1,2.6E1,1.7E1,1.7E1,2E0,9E0,2E0,1E0,4.3E1,6E0,2E0,2.6E1,5.7E1,3.4E1,1.7E1,9E0,1.2E1,5E0,1.2E1,5E0,1E0,1E0,1E0,1E0,1E0,1E0,1.7E1,9E0,3.7E1,2E1,1.3E1,2.1E1,5E0,1.2E1,4E0,5E0,3E0,9E0,2E0,3E0,1E0,1.1E1,1E0,4E0],"tree_param":{"num_deleted":"0","num_feature":"7","num_nodes":"63","size_leaf_vector":"1"}},{"base_weights":[4.2856377E-2,-8.424325E-2,1.8264633E0,-4.2814985E-1,2.1044163E-1,2.746332E0,8.24177E-1,-5.048708E-1,-3.0716157E-1,3.5745546E-1,-8.7712355E-2,1.049614E0,9.1179293E-1,-1.5455174E-1,3.631558E-1,-1.2485313E-1,-1.736176E-1,-2.7000853E-1,-2.084352E-1,9.547727E-2,6.619943E-1,-1.3482836E-1,2.8812912E-1,4.1147563E-1,6.085067E-2,3.709094E-2,-1.09421976E-1,-3.3358437E-1,-1.98493E-1,2.8505164E-1,1.9168308E-2,4.5105907E-1,8.624893E-1,-4.949515E-2,-2.774853E-1,1.0710323E-1,-8.441842E-3,-1.9301177E-3,1.862104E-2,-4.7309343E-2,-1.0787315E-1,-4.3276343E-2,-7.780218E-2,1.0711566E-1,-6.0639386E-3,-5.329367E-3,8.659135E-2,2.0187616E-1,6.860209E-2,1.7853165E-1,3.451733E-1,-7.2301894E-2,2.527371E-3,-9.8113835E-2,-2.7939064E-2],"categories":[],"categories_nodes":[],"categories_segments":[],"categories_sizes":[],"default_left":[0,0,0,0,0,0,0,0,0,0,0,0,0,0,0,0,0,0,0,0,0,0,0,0,0,0,0,0,0,0,0,0,0,0,0,0,0,0,0,0,0,0,0,0,0,0,0,0,0,0,0,0,0,0,0],"id":6,"left_children":[1,3,5,7,9,11,13,15,17,19,21,23,-1,25,-1,-1,-1,27,-1,29,31,33,35,-1,-1,37,-1,39,41,43,45,47,49,51,53,-1,-1,-1,-1,-1,-1,-1,-1,-1,-1,-1,-1,-1,-1,-1,-1,-1,-1,-1,-1],"loss_changes":[6.8162605E1,2.8567787E1,1.6175972E1,1.0516262E0,6.6939335E0,1.7809067E0,4.346455E0,2.7008057E-1,5.756736E-1,8.074611E0,9.419637E-1,5.397091E-1,0E0,1.7465264E-1,0E0,0E0,0E0,1.611185E-1,0E0,8.046445E-1,1.5986652E0,5.462412E-1,1.4075664E-1,0E0,0E0,3.6609755E-3,0E0,5.7590008E-2,4.839635E-2,3.5888493E-1,4.1317102E-1,1.0795898E0,1.0869789E0,3.3479854E-1,1.2486756E-1,0E0,0E0,0E0,0E0,0E0,0E0,0E0,0E0,0E0,0E0,0E0,0E0,0E0,0E0,0E0,0E0,0E0,0E0,0E0,0E0],"parents":[2147483647,0,0,1,1,2,2,3,3,4,4,5,5,6,6,7,7,8,8,9,9,10,10,11,11,13,13,17,17,19,19,20,20,21,21,22,22,25,25,27,27,28,28,29,29,30,30,31,31,32,32,33,33,34,34],"right_children":[2,4,6,8,10,12,14,16,18,20,22,24,-1,26,-1,-1,-1,28,-1,30,32,34,36,-1,-1,38,-1,40,42,44,46,48,50,52,54,-1,-1,-1,-1,-1,-1,-1,-1,-1,-1,-1,-1,-1,-1,-1,-1,-1,-1,-1,-1],"split_conditions":[1.864E1,5.7E0,9E0,1.4E0,1E1,1E0,1E0,2.0114E4,1.4E1,8.89E0,1.861E1,1.977E1,9.1179293E-1,2.315E1,3.631558E-1,-1.2485313E-1,-1.736176E-1,3.46E0,-2.084352E-1,1.66E4,1.204E1,1.3E1,1.2E1,4.1147563E-1,6.085067E-2,2.283E1,-1.09421976E-1,4.1E3,1.1E1,8.12E0,1E0,9.85E0,1E0,6.1E0,1.248E1,1.0710323E-1,-8.441842E-3,-1.9301177E-3,1.862104E-2,-4.7309343E-2,-1.0787315E-1,-4.3276343E-2,-7.780218E-2,1.0711566E-1,-6.0639386E-3,-5.329367E-3,8.659135E-2,2.0187616E-1,6.860209E-2,1.7853165E-1,3.451733E-1,-7.2301894E-2,2.527371E-3,-9.8113835E-2,-2.7939064E-2],"split_indices":[0,0,6,0,6,4,2,1,6,0,0,0,0,0,0,0,0,0,0,1,0,6,6,0,0,0,0,1,6,0,4,0,2,0,0,0,0,0,0,0,0,0,0,0,0,0,0,0,0,0,0,0,0,0,0],"split_type":[0,0,0,0,0,0,0,0,0,0,0,0,0,0,0,0,0,0,0,0,0,0,0,0,0,0,0,0,0,0,0,0,0,0,0,0,0,0,0,0,0,0,0,0,0,0,0,0,0,0,0,0,0,0,0],"sum_hessian":[2.99E2,2.8E2,1.9E1,1.29E2,1.51E2,9E0,1E1,7.7E1,5.2E1,1.01E2,5E1,2E0,7E0,3E0,7E0,3.8E1,3.9E1,4.9E1,3E0,5.5E1,4.6E1,4.5E1,5E0,1E0,1E0,2E0,1E0,2.4E1,2.5E1,1.5E1,4E1,2.4E1,2.2E1,2.9E1,1.6E1,4E0,1E0,1E0,1E0,4E0,2E1,1.5E1,1E1,1.2E1,3E0,3.6E1,4E0,1.1E1,1.3E1,1.3E1,9E0,6E0,2.3E1,1.2E1,4E0],"tree_param":{"num_deleted":"0","num_feature":"7","num_nodes":"55","size_leaf_vector":"1"}},{"base_weights":[3.5835158E-2,-5.862807E-2,1.3612518E0,-2.3105799E-1,2.462348E-1,1.7588035E0,1.4049733E-1,-3.2061997E-1,-5.1082656E-2,3.849628E-1,-7.88092E-3,2.0608444E0,2.8868037E-1,1.3684598E-1,-1.3136894E-1,-2.9256782E-1,-1.6461262E-1,-8.46324E-3,-2.6759535E-1,2.6105294E-1,6.5690285E-1,5.0246514E-2,-2.6417658E-1,8.9217186E-1,6.724473E-1,3.152736E-2,-9.3008675E-2,-1.2241732E-1,-2.4760762E-1,6.598093E-2,-7.4628994E-2,-2.8897604E-1,-1.1275363E-2,6.3540816E-1,1.6796958E-1,4.0632677E-1,9.8197615E-1,-9.953907E-2,1.06673636E-1,-1.3193364E-1,-1.5864512E-1,3.4975433E-1,5.1723007E-2,-1.6405821E-3,1.5827894E-2,-5.399203E-2,-8.578241E-2,9.534379E-3,7.127517E-2,-3.3087973E-2,1.4435977E-2,-4.585918E-2,-1.1018789E-1,2.4083875E-1,9.910298E-3,-8.40678E-2,5.6141574E-2,7.4875094E-2,2.5368282E-1,4.0902603E-1,1.4412776E-1,3.2815218E-2,-4.179824E-2,1.1847239E-1,7.562429E-3,-5.5351213E-2,-5.3585772E-3],"categories":[],"categories_nodes":[],"categories_segments":[],"categories_sizes":[],"default_left":[0,0,0,0,0,0,0,0,0,0,0,0,0,0,0,0,0,0,0,0,0,0,0,0,0,0,0,0,0,0,0,0,0,0,0,0,0,0,0,0,0,0,0,0,0,0,0,0,0,0,0,0,0,0,0,0,0,0,0,0,0,0,0,0,0,0,0],"id":7,"left_children":[1,3,5,7,9,11,13,15,17,19,21,23,-1,-1,25,27,-1,29,31,33,35,37,39,41,-1,43,-1,-1,45,47,49,51,-1,53,55,57,59,61,63,65,-1,-1,-1,-1,-1,-1,-1,-1,-1,-1,-1,-1,-1,-1,-1,-1,-1,-1,-1,-1,-1,-1,-1,-1,-1,-1,-1],"loss_changes":[3.7640747E1,1.4828358E1,9.459152E0,2.8850327E0,3.598837E0,1.6257133E0,5.7482153E-1,6.072712E-1,5.6062156E-1,2.052452E0,5.644929E-1,1.113739E-1,0E0,0E0,1.2618658E-1,4.6493912E-1,0E0,2.6105815E-1,3.8316846E-2,1.531044E0,1.2301083E0,2.7262923E-1,1.7520899E-1,3.899405E-1,0E0,2.645049E-3,0E0,0E0,1.5854454E-1,1.3916838E-1,1.2788421E-1,3.9793074E-2,0E0,8.8094974E-1,3.8750792E-1,6.8405867E-1,8.7548447E-1,9.005465E-2,5.301119E-1,3.268516E-2,0E0,0E0,0E0,0E0,0E0,0E0,0E0,0E0,0E0,0E0,0E0,0E0,0E0,0E0,0E0,0E0,0E0,0E0,0E0,0E0,0E0,0E0,0E0,0E0,0E0,0E0,0E0],"parents":[2147483647,0,0,1,1,2,2,3,3,4,4,5,5,6,6,7,7,8,8,9,9,10,10,11,11,14,14,15,15,17,17,18,18,19,19,20,20,21,21,22,22,23,23,25,25,28,28,29,29,30,30,31,31,33,33,34,34,35,35,36,36,37,37,38,38,39,39],"right_children":[2,4,6,8,10,12,14,16,18,20,22,24,-1,-1,26,28,-1,30,32,34,36,38,40,42,-1,44,-1,-1,46,48,50,52,-1,54,56,58,60,62,64,66,-1,-1,-1,-1,-1,-1,-1,-1,-1,-1,-1,-1,-1,-1,-1,-1,-1,-1,-1,-1,-1,-1,-1,-1,-1,-1,-1],"split_conditions":[1.864E1,7.6E0,1.2E1,4.6E0,1E1,9E0,2.091E1,1.5E1,5.42E4,1.346E1,1.5E1,1E0,2.8868037E-1,1.3684598E-1,2.315E1,7.4E-1,-1.6461262E-1,9E0,1E0,7E0,1E0,4.3535E4,1E0,1.977E1,6.724473E-1,2.283E1,-9.3008675E-2,-1.2241732E-1,8E0,1E0,1E0,1.1E1,-1.1275363E-2,1.6E4,4.1E3,1E0,1.37E1,3.3E4,4.9562E4,7.7427E4,-1.5864512E-1,3.4975433E-1,5.1723007E-2,-1.6405821E-3,1.5827894E-2,-5.399203E-2,-8.578241E-2,9.534379E-3,7.127517E-2,-3.3087973E-2,1.4435977E-2,-4.585918E-2,-1.1018789E-1,2.4083875E-1,9.910298E-3,-8.40678E-2,5.6141574E-2,7.4875094E-2,2.5368282E-1,4.0902603E-1,1.4412776E-1,3.2815218E-2,-4.179824E-2,1.1847239E-1,7.562429E-3,-5.5351213E-2,-5.3585772E-3],"split_indices":[0,0,6,0,6,6,0,6,1,0,6,4,0,0,0,0,0,6,5,6,2,1,4,0,0,0,0,0,6,4,2,6,0,1,1,4,0,1,1,1,0,0,0,0,0,0,0,0,0,0,0,0,0,0,0,0,0,0,0,0,0,0,0,0,0,0,0],"split_type":[0,0,0,0,0,0,0,0,0,0,0,0,0,0,0,0,0,0,0,0,0,0,0,0,0,0,0,0,0,0,0,0,0,0,0,0,0,0,0,0,0,0,0,0,0,0,0,0,0,0,0,0,0,0,0,0,0,0,0,0,0,0,0,0,0,0,0],"sum_hessian":[2.99E2,2.8E2,1.9E1,1.79E2,1.01E2,1.4E1,5E0,1.19E2,6E1,6.5E1,3.6E1,9E0,5E0,2E0,3E0,1.08E2,1.1E1,5.1E1,9E0,4.6E1,1.9E1,3E1,6E0,2E0,7E0,2E0,1E0,2.8E1,8E1,2.4E1,2.7E1,8E0,1E0,8E0,3.8E1,1.2E1,7E0,8E0,2.2E1,5E0,1E0,1E0,1E0,1E0,1E0,3.1E1,4.9E1,2.1E1,3E0,2.1E1,6E0,4E0,4E0,6E0,2E0,1E0,3.7E1,1E1,2E0,3E0,4E0,1E0,7E0,4E0,1.8E1,3E0,2E0],"tree_param":{"num_deleted":"0","num_feature":"7","num_nodes":"67","size_leaf_vector":"1"}},{"base_weights":[3.138761E-2,-3.9366093E-2,1.0239078E0,-1.5164874E-1,2.0861344E-1,1.3220028E0,1.0801903E-1,-2.2799067E-1,-2.7479658E-2,3.5767192E-1,4.4304073E-2,4.6499512E-1,2.1651027E-1,1.0947686E-1,-1.1166358E-1,-1.8594451E-1,-3.2093328E-1,7.212119E-2,-9.183935E-2,2.3130244E-1,5.5963737E-1,1.5086034E-1,-1.1207189E-1,2.6798248E-2,-7.9057366E-2,-2.074917E-1,-3.7574768E-2,-8.750721E-2,-3.320905E-1,-1.196593E-2,1.5700604E-1,-1.19699016E-1,2.3061192E-1,2.1610051E-1,1.7064528E-1,3.6191058E-1,8.61818E-1,3.5574604E-2,3.3176008E-1,-6.5782644E-2,-1.3484836E-1,-1.3944627E-3,1.34536745E-2,-8.212242E-2,-5.2259617E-2,6.995406E-4,-2.3360994E-2,-5.2014668E-2,1.2636424E-2,-8.824366E-2,-1.3092864E-1,-1.1459628E-2,5.722897E-2,8.032487E-2,1.602812E-2,-4.172725E-2,1.0421348E-1,1.7400885E-2,8.064418E-2,-1.1961565E-1,6.893337E-2,1.7750044E-1,5.192199E-2,3.1699514E-1,9.443064E-2,8.581285E-2,-5.0672055E-3,3.729172E-2,1.8355955E-1,-6.436704E-2,-1.0504851E-3],"categories":[],"categories_nodes":[],"categories_segments":[],"categories_sizes":[],"default_left":[0,0,0,0,0,0,0,0,0,0,0,0,0,0,0,0,0,0,0,0,0,0,0,0,0,0,0,0,0,0,0,0,0,0,0,0,0,0,0,0,0,0,0,0,0,0,0,0,0,0,0,0,0,0,0,0,0,0,0,0,0,0,0,0,0,0,0,0,0,0,0],"id":8,"left_children":[1,3,5,7,9,11,13,15,17,19,21,-1,-1,-1,23,25,27,29,31,33,35,37,39,41,-1,43,45,47,49,51,53,55,57,-1,59,61,63,65,67,69,-1,-1,-1,-1,-1,-1,-1,-1,-1,-1,-1,-1,-1,-1,-1,-1,-1,-1,-1,-1,-1,-1,-1,-1,-1,-1,-1,-1,-1,-1,-1],"loss_changes":[2.1107649E1,7.8557434E0,5.3176365E0,1.8327208E0,2.1394238E0,9.342365E-1,3.7937242E-1,4.092703E-1,4.8739454E-1,1.0445786E0,7.334093E-1,0E0,0E0,0E0,9.1169775E-2,2.639444E-1,6.4697266E-2,2.160104E-1,4.4083974E-1,7.6697814E-1,7.03835E-1,5.304319E-1,2.5157374E-1,1.9110255E-3,0E0,1.155324E-1,1.94781E-2,4.0698685E-2,6.236315E-3,9.237746E-2,1.5775546E-1,4.377882E-1,1.0784045E-2,0E0,1.03432E0,4.182396E-1,3.0689716E-1,2.2822657E-1,5.050318E-1,1.5676741E-1,0E0,0E0,0E0,0E0,0E0,0E0,0E0,0E0,0E0,0E0,0E0,0E0,0E0,0E0,0E0,0E0,0E0,0E0,0E0,0E0,0E0,0E0,0E0,0E0,0E0,0E0,0E0,0E0,0E0,0E0,0E0],"parents":[2147483647,0,0,1,1,2,2,3,3,4,4,5,5,6,6,7,7,8,8,9,9,10,10,14,14,15,15,16,16,17,17,18,18,19,19,20,20,21,21,22,22,23,23,25,25,26,26,27,27,28,28,29,29,30,30,31,31,32,32,34,34,35,35,36,36,37,37,38,38,39,39],"right_children":[2,4,6,8,10,12,14,16,18,20,22,-1,-1,-1,24,26,28,30,32,34,36,38,40,42,-1,44,46,48,50,52,54,56,58,-1,60,62,64,66,68,70,-1,-1,-1,-1,-1,-1,-1,-1,-1,-1,-1,-1,-1,-1,-1,-1,-1,-1,-1,-1,-1,-1,-1,-1,-1,-1,-1,-1,-1,-1,-1],"split_conditions":[1.864E1,8.01E0,1.2E1,4.6E0,9E0,9E0,2.091E1,1.1E1,3.1604E4,1.346E1,5.9E4,4.6499512E-1,2.1651027E-1,1.0947686E-1,2.315E1,3.46E0,5.4E3,5.97E0,1E0,3.493E3,1E0,4.65E4,1.9E1,2.283E1,-7.9057366E-2,7.3E-1,4.43E0,6.4E-1,1.6E1,2.8282E4,1.66E4,7.7632E4,3.2322E4,2.1610051E-1,7E3,2.3E4,1.37E1,3.3E4,1E0,1.1E1,-1.3484836E-1,-1.3944627E-3,1.34536745E-2,-8.212242E-2,-5.2259617E-2,6.995406E-4,-2.3360994E-2,-5.2014668E-2,1.2636424E-2,-8.824366E-2,-1.3092864E-1,-1.1459628E-2,5.722897E-2,8.032487E-2,1.602812E-2,-4.172725E-2,1.0421348E-1,1.7400885E-2,8.064418E-2,-1.1961565E-1,6.893337E-2,1.7750044E-1,5.192199E-2,3.1699514E-1,9.443064E-2,8.581285E-2,-5.0672055E-3,3.729172E-2,1.8355955E-1,-6.436704E-2,-1.0504851E-3],"split_indices":[0,0,6,0,6,6,0,6,1,0,1,0,0,0,0,0,1,0,4,1,2,1,6,0,0,0,0,0,6,1,1,1,1,0,1,1,0,1,2,6,0,0,0,0,0,0,0,0,0,0,0,0,0,0,0,0,0,0,0,0,0,0,0,0,0,0,0,0,0,0,0],"split_type":[0,0,0,0,0,0,0,0,0,0,0,0,0,0,0,0,0,0,0,0,0,0,0,0,0,0,0,0,0,0,0,0,0,0,0,0,0,0,0,0,0,0,0,0,0,0,0,0,0,0,0,0,0,0,0,0,0,0,0,0,0,0,0,0,0,0,0,0,0,0,0],"sum_hessian":[2.99E2,2.8E2,1.9E1,1.93E2,8.7E1,1.4E1,5E0,1.19E2,7.4E1,4.5E1,4.2E1,9E0,5E0,2E0,3E0,8.4E1,3.5E1,2.9E1,4.5E1,2.9E1,1.6E1,2.5E1,1.7E1,2E0,1E0,7.3E1,1.1E1,2E0,3.3E1,1.5E1,1.4E1,4.2E1,3E0,2E0,2.7E1,1.1E1,5E0,1.6E1,9E0,1.6E1,1E0,1E0,1E0,2.2E1,5.1E1,6E0,5E0,1E0,1E0,2.7E1,6E0,1.4E1,1E0,6E0,8E0,4.1E1,1E0,1E0,2E0,2E0,2.5E1,4E0,7E0,3E0,2E0,2E0,1.4E1,6E0,3E0,4E0,1.2E1],"tree_param":{"num_deleted":"0","num_feature":"7","num_nodes":"71","size_leaf_vector":"1"}},{"base_weights":[2.7033474E-2,-6.1736137E-2,4.6164855E-1,-1.556275E-1,3.96491E-2,2.1237509E-1,7.805829E-1,-1.3543557E-1,-2.6646265E-1,1.9950612E-1,-1.52433915E-2,3.213771E-1,1.1276721E-1,1.0487543E0,4.1707018E-1,-2.0414495E-1,-1.1228919E-1,-2.0923896E-1,-1.06672265E-1,7.2547436E-2,3.6971447E-1,-1.5508072E-3,-3.126694E-1,1.9625382E-1,-8.5288286E-2,6.0133666E-1,1.197296E0,1.1198938E-1,1.5524304E-1,-4.5266256E-2,-6.9398694E-2,-6.282603E-2,-1.3153104E-1,-7.047408E-2,-3.481256E-2,1.398256E-1,-6.276165E-2,6.1588675E-1,7.072585E-2,-4.7879566E-2,8.9614116E-2,-1.1195326E-2,-1.1760421E-1,1.1805762E-1,1.8000393E-1,-2.4115631E-2,-5.9878517E-2,2.597208E-1,-6.84391E-2,3.8070282E-1,1.0429545E-1,6.2148575E-2,1.1211236E-2,-9.3933465E-3,-4.3168016E-2,-2.0859912E-2,-4.3133985E-2,1.1960436E-2,1.0642888E-1,4.6932507E-2,-3.7610747E-2,2.073947E-1,2.449701E-2,-6.966429E-2,7.150343E-2,-2.6178714E-2,5.4182895E-2,-3.321549E-2,4.3293145E-2,7.264257E-2,1.5511983E-2,-1.7187668E-2,4.526961E-3,-2.5254965E-3,7.570553E-3],"categories":[],"categories_nodes":[],"categories_segments":[],"categories_sizes":[],"default_left":[0,0,0,0,0,0,0,0,0,0,0,0,0,0,0,0,0,0,0,0,0,0,0,0,0,0,0,0,0,0,0,0,0,0,0,0,0,0,0,0,0,0,0,0,0,0,0,0,0,0,0,0,0,0,0,0,0,0,0,0,0,0,0,0,0,0,0,0,0,0,0,0,0,0,0],"id":9,"left_children":[1,3,5,7,9,11,13,15,17,19,21,-1,23,25,27,29,31,33,-1,35,37,39,41,43,45,47,49,51,-1,-1,-1,53,55,-1,-1,57,59,61,63,65,67,-1,-1,69,-1,71,-1,-1,-1,-1,-1,-1,73,-1,-1,-1,-1,-1,-1,-1,-1,-1,-1,-1,-1,-1,-1,-1,-1,-1,-1,-1,-1,-1,-1],"loss_changes":[1.1602684E1,2.38597E0,3.8888178E0,2.5484824E-1,1.06481E0,2.4457397E0,1.7072382E0,1.5519834E-1,2.2486448E-2,6.4307046E-1,3.701154E-1,0E0,4.797176E-1,7.754421E-2,2.7900147E-1,4.1846037E-3,7.358813E-2,6.239414E-3,0E0,1.8173927E-1,9.132762E-1,3.7596378E-1,7.2761625E-2,5.606128E-1,5.811867E-2,1.2940533E0,4.6272278E-2,3.60427E-2,0E0,0E0,0E0,6.192004E-2,3.632641E-2,0E0,0E0,2.6515597E-1,1.1567938E-1,2.2562432E-1,4.1079655E-1,5.466747E-1,3.447014E-1,0E0,0E0,1.3567576E-1,0E0,9.969467E-3,0E0,0E0,0E0,0E0,0E0,0E0,1.0382889E-3,0E0,0E0,0E0,0E0,0E0,0E0,0E0,0E0,0E0,0E0,0E0,0E0,0E0,0E0,0E0,0E0,0E0,0E0,0E0,0E0,0E0,0E0],"parents":[2147483647,0,0,1,1,2,2,3,3,4,4,5,5,6,6,7,7,8,8,9,9,10,10,12,12,13,13,14,14,15,15,16,16,17,17,19,19,20,20,21,21,22,22,23,23,24,24,25,25,26,26,27,27,31,31,32,32,35,35,36,36,37,37,38,38,39,39,40,40,43,43,45,45,52,52],"right_children":[2,4,6,8,10,12,14,16,18,20,22,-1,24,26,28,30,32,34,-1,36,38,40,42,44,46,48,50,52,-1,-1,-1,54,56,-1,-1,58,60,62,64,66,68,-1,-1,70,-1,72,-1,-1,-1,-1,-1,-1,74,-1,-1,-1,-1,-1,-1,-1,-1,-1,-1,-1,-1,-1,-1,-1,-1,-1,-1,-1,-1,-1,-1],"split_conditions":[1.346E1,5.7E0,1E0,1.3E1,8E0,7E0,4.8E4,7.4E-1,6.0076E4,8.89E0,1.235E1,3.213771E-1,1.2E1,2.9223E4,1.468E1,8E0,1E0,8E-1,-1.06672265E-1,1.65E4,9.85E0,1E0,4.5078E4,1E0,1.6E1,2.35E4,9E0,9E0,1.5524304E-1,-4.5266256E-2,-6.9398694E-2,4.89E0,5.2E3,-7.047408E-2,-3.481256E-2,1.25E4,5.71E0,2.1E4,1E0,1E0,6.8E0,-1.1195326E-2,-1.1760421E-1,2.5E4,1.8000393E-1,7.1E4,-5.9878517E-2,2.597208E-1,-6.84391E-2,3.8070282E-1,1.0429545E-1,6.2148575E-2,1.36E1,-9.3933465E-3,-4.3168016E-2,-2.0859912E-2,-4.3133985E-2,1.1960436E-2,1.0642888E-1,4.6932507E-2,-3.7610747E-2,2.073947E-1,2.449701E-2,-6.966429E-2,7.150343E-2,-2.6178714E-2,5.4182895E-2,-3.321549E-2,4.3293145E-2,7.264257E-2,1.5511983E-2,-1.7187668E-2,4.526961E-3,-2.5254965E-3,7.570553E-3],"split_indices":[0,0,2,6,6,6,1,0,1,0,0,0,6,1,0,6,3,0,0,1,0,2,1,4,6,1,6,6,0,0,0,0,1,0,0,1,0,1,2,4,0,0,0,1,0,1,0,0,0,0,0,0,0,0,0,0,0,0,0,0,0,0,0,0,0,0,0,0,0,0,0,0,0,0,0],"split_type":[0,0,0,0,0,0,0,0,0,0,0,0,0,0,0,0,0,0,0,0,0,0,0,0,0,0,0,0,0,0,0,0,0,0,0,0,0,0,0,0,0,0,0,0,0,0,0,0,0,0,0,0,0,0,0,0,0,0,0,0,0,0,0,0,0,0,0,0,0,0,0,0,0,0,0],"sum_hessian":[2.99E2,2.49E2,5E1,1.29E2,1.2E2,2.9E1,2.1E1,1.11E2,1.8E1,3E1,9E1,2E0,2.7E1,1.1E1,1E1,2.6E1,8.5E1,1.3E1,5E0,1.8E1,1.2E1,8.7E1,3E0,1.9E1,8E0,4E0,7E0,3E0,7E0,1.1E1,1.5E1,2.5E1,6E1,9E0,4E0,1.2E1,6E0,6E0,6E0,5.8E1,2.9E1,1E0,2E0,1.7E1,2E0,6E0,2E0,3E0,1E0,6E0,1E0,1E0,2E0,1.9E1,6E0,1.1E1,4.9E1,9E0,3E0,1E0,5E0,5E0,1E0,2E0,4E0,5E1,8E0,6E0,2.3E1,5E0,1.2E1,3E0,3E0,1E0,1E0],"tree_param":{"num_deleted":"0","num_feature":"7","num_nodes":"75","size_leaf_vector":"1"}},{"base_weights":[2.3067646E-2,-1.7241875E-2,5.8826303E-1,-1.123483E-1,6.421258E-2,7.6858425E-1,3.9416153E-2,-9.686935E-2,-1.9767958E-1,2.0237839E-1,1.7999416E-2,9.0063775E-1,1.2611933E-1,1.592598E-1,-1.3351409E-1,-1.4906548E-1,-8.0157064E-2,-1.5398774E-1,-8.000419E-2,5.7504702E-2,3.2988948E-1,5.989101E-2,-7.946397E-2,3.170093E-1,3.0207562E-1,7.2399616E-2,1.5437508E-2,-1.8643857E-3,-5.8216956E-2,-3.2002404E-2,-5.1912133E-2,-9.292597E-2,-4.4773113E-2,-5.144608E-2,-2.645755E-2,1.0109024E-1,-8.475284E-2,7.873082E-2,4.0836033E-1,1.9784588E-2,1.8122637E-1,-5.1253617E-2,-1.6826722E-1,1.7933536E-1,-3.6681175E-2,-2.2911634E-2,-3.740946E-2,-2.6507935E-2,6.772922E-4,2.9856337E-3,8.441282E-2,-6.378776E-2,6.401089E-2,-5.4641712E-2,1.2009411E-1,1.471305E-1,4.3837193E-2,-1.3894023E-2,3.7910845E-2,9.1467194E-2,2.2012794E-2,-3.5442505E-2,-4.0055453E-3,-2.9982919E-2,-9.698046E-2],"categories":[],"categories_nodes":[],"categories_segments":[],"categories_sizes":[],"default_left":[0,0,0,0,0,0,0,0,0,0,0,0,0,0,0,0,0,0,0,0,0,0,0,0,0,0,0,0,0,0,0,0,0,0,0,0,0,0,0,0,0,0,0,0,0,0,0,0,0,0,0,0,0,0,0,0,0,0,0,0,0,0,0,0,0],"id":10,"left_children":[1,3,5,7,9,11,13,15,17,19,21,23,-1,25,27,29,31,33,-1,35,37,39,41,43,-1,-1,-1,-1,-1,-1,-1,45,47,-1,-1,49,51,53,55,57,59,61,63,-1,-1,-1,-1,-1,-1,-1,-1,-1,-1,-1,-1,-1,-1,-1,-1,-1,-1,-1,-1,-1,-1],"loss_changes":[6.844969E0,2.1840768E0,1.949081E0,1.5255988E-1,9.6688926E-1,3.1106186E-1,1.4561097E-1,8.57507E-2,1.6215384E-2,6.83004E-1,4.742923E-1,3.0108452E-1,0E0,2.2971481E-2,2.1915063E-2,7.965267E-3,3.514731E-2,9.955168E-4,0E0,1.2637475E-1,3.6202192E-1,3.905871E-1,7.905668E-2,4.4310817E-1,0E0,0E0,0E0,0E0,0E0,0E0,0E0,2.3611546E-2,5.1447324E-2,0E0,0E0,2.4366342E-1,2.35977E-1,5.7626045E-1,2.5117993E-1,4.4264558E-1,2.4437308E-1,6.9407575E-2,5.241409E-2,0E0,0E0,0E0,0E0,0E0,0E0,0E0,0E0,0E0,0E0,0E0,0E0,0E0,0E0,0E0,0E0,0E0,0E0,0E0,0E0,0E0,0E0],"parents":[2147483647,0,0,1,1,2,2,3,3,4,4,5,5,6,6,7,7,8,8,9,9,10,10,11,11,13,13,14,14,15,15,16,16,17,17,19,19,20,20,21,21,22,22,23,23,31,31,32,32,35,35,36,36,37,37,38,38,39,39,40,40,41,41,42,42],"right_children":[2,4,6,8,10,12,14,16,18,20,22,24,-1,26,28,30,32,34,-1,36,38,40,42,44,-1,-1,-1,-1,-1,-1,-1,46,48,-1,-1,50,52,54,56,58,60,62,64,-1,-1,-1,-1,-1,-1,-1,-1,-1,-1,-1,-1,-1,-1,-1,-1,-1,-1,-1,-1,-1,-1],"split_conditions":[1.864E1,5.7E0,1.2E1,1.3E1,8E0,9E0,8.3E4,7.3E-1,6.0076E4,8.89E0,1.1E1,1E0,1.2611933E-1,5.0456E4,2.283E1,1.5001E4,3.46E0,8E-1,-8.000419E-2,8.12E0,1.1E4,1.079E1,1.5E1,1.977E1,3.0207562E-1,7.2399616E-2,1.5437508E-2,-1.8643857E-3,-5.8216956E-2,-3.2002404E-2,-5.1912133E-2,2.178E4,2.8569E4,-5.144608E-2,-2.645755E-2,7.7E0,1E0,1E0,3.6E4,4.3535E4,4.0023E4,7.85E0,1E0,1.7933536E-1,-3.6681175E-2,-2.2911634E-2,-3.740946E-2,-2.6507935E-2,6.772922E-4,2.9856337E-3,8.441282E-2,-6.378776E-2,6.401089E-2,-5.4641712E-2,1.2009411E-1,1.471305E-1,4.3837193E-2,-1.3894023E-2,3.7910845E-2,9.1467194E-2,2.2012794E-2,-3.5442505E-2,-4.0055453E-3,-2.9982919E-2,-9.698046E-2],"split_indices":[0,0,6,6,6,6,1,0,1,0,6,4,0,1,0,1,0,0,0,0,1,0,6,0,0,0,0,0,0,0,0,1,1,0,0,0,4,2,1,1,1,0,4,0,0,0,0,0,0,0,0,0,0,0,0,0,0,0,0,0,0,0,0,0,0],"split_type":[0,0,0,0,0,0,0,0,0,0,0,0,0,0,0,0,0,0,0,0,0,0,0,0,0,0,0,0,0,0,0,0,0,0,0,0,0,0,0,0,0,0,0,0,0,0,0,0,0,0,0,0,0,0,0,0,0,0,0,0,0,0,0,0,0],"sum_hessian":[2.99E2,2.8E2,1.9E1,1.29E2,1.51E2,1.4E1,5E0,1.11E2,1.8E1,3.7E1,1.14E2,9E0,5E0,3E0,2E0,2.5E1,8.6E1,1.3E1,5E0,1.8E1,1.9E1,8E1,3.4E1,2E0,7E0,1E0,2E0,1E0,1E0,1.1E1,1.4E1,6.2E1,2.4E1,9E0,4E0,1.4E1,4E0,5E0,1.4E1,6.1E1,1.9E1,2.7E1,7E0,1E0,1E0,4.3E1,1.9E1,1.2E1,1.2E1,1E1,4E0,3E0,1E0,3E0,2E0,1E1,4E0,3.8E1,2.3E1,8E0,1.1E1,9E0,1.8E1,6E0,1E0],"tree_param":{"num_deleted":"0","num_feature":"7","num_nodes":"65","size_leaf_vector":"1"}},{"base_weights":[1.8099843E-2,-1.795929E-2,3.833629E-1,-8.11667E-2,3.883328E-2,6.2032604E-1,1.524373E-1,-7.339938E-2,-1.9044338E-1,1.507185E-1,-8.9331245E-4,6.4570576E-1,4.7365382E-2,2.2168136E-1,-9.3404174E-2,-1.1756061E-1,-5.8524527E-2,-2.581888E-2,-8.199243E-2,4.4865005E-2,2.4374339E-1,1.06306955E-1,-2.7991157E-2,4.313377E-1,8.595535E-1,-4.487944E-3,2.4455418E-1,-4.3720724E-3,-4.94844E-2,-2.252414E-2,-1.3820277E-1,-2.6676608E-2,-6.967701E-2,9.72801E-2,-5.8886595E-2,6.602025E-2,2.985831E-1,1.2531012E-1,-4.391395E-2,-8.9984946E-2,6.233296E-2,2.2884397E-1,-9.0841055E-2,2.8746602E-1,6.973314E-2,2.9375793E-2,2.662598E-1,-4.3236367E-2,-1.7579198E-2,-1.9167297E-2,2.935522E-3,-1.6194357E-2,-2.8067784E-2,9.4885975E-3,7.112661E-2,3.944478E-2,-3.375857E-2,-4.2347327E-2,9.607526E-2,1.296022E-1,5.6601077E-2,6.6897266E-2,1.816255E-2,1.65032E-2,-3.774525E-2,-5.2384487E-3,3.8112484E-2,8.0159E-2,-8.9775756E-2,9.312864E-2,4.00324E-2],"categories":[],"categories_nodes":[],"categories_segments":[],"categories_sizes":[],"default_left":[0,0,0,0,0,0,0,0,0,0,0,0,0,0,0,0,0,0,0,0,0,0,0,0,0,0,0,0,0,0,0,0,0,0,0,0,0,0,0,0,0,0,0,0,0,0,0,0,0,0,0,0,0,0,0,0,0,0,0,0,0,0,0,0,0,0,0,0,0,0,0],"id":11,"left_children":[1,3,5,7,9,11,13,15,17,19,21,23,-1,25,27,29,31,-1,-1,33,35,37,39,41,43,-1,45,-1,-1,-1,47,49,51,53,55,57,59,61,-1,63,65,-1,67,-1,-1,-1,69,-1,-1,-1,-1,-1,-1,-1,-1,-1,-1,-1,-1,-1,-1,-1,-1,-1,-1,-1,-1,-1,-1,-1,-1],"loss_changes":[3.9582057E0,9.867328E-1,1.3829021E0,9.63639E-2,6.446333E-1,5.0629616E-2,2.7605188E-1,7.391751E-2,4.5673966E-2,3.632509E-1,3.1670445E-1,1.7934752E-1,0E0,6.861025E-2,2.0155486E-2,1.5930116E-2,3.1528473E-2,0E0,0E0,1.09053336E-1,1.752131E-1,1.2398355E-1,4.9276853E-1,1.4540104E0,8.664155E-2,0E0,8.938789E-3,0E0,0E0,0E0,5.065799E-4,3.5904545E-2,2.081433E-2,1.1182346E-1,8.6278E-2,3.6123177E-1,1.384685E-1,1.1935866E-1,0E0,2.770905E-1,1.8810041E-1,0E0,3.784359E-1,0E0,0E0,0E0,1.1374116E-2,0E0,0E0,0E0,0E0,0E0,0E0,0E0,0E0,0E0,0E0,0E0,0E0,0E0,0E0,0E0,0E0,0E0,0E0,0E0,0E0,0E0,0E0,0E0,0E0],"parents":[2147483647,0,0,1,1,2,2,3,3,4,4,5,5,6,6,7,7,8,8,9,9,10,10,11,11,13,13,14,14,15,15,16,16,19,19,20,20,21,21,22,22,23,23,24,24,26,26,30,30,31,31,32,32,33,33,34,34,35,35,36,36,37,37,39,39,40,40,42,42,46,46],"right_children":[2,4,6,8,10,12,14,16,18,20,22,24,-1,26,28,30,32,-1,-1,34,36,38,40,42,44,-1,46,-1,-1,-1,48,50,52,54,56,58,60,62,-1,64,66,-1,68,-1,-1,-1,70,-1,-1,-1,-1,-1,-1,-1,-1,-1,-1,-1,-1,-1,-1,-1,-1,-1,-1,-1,-1,-1,-1,-1,-1],"split_conditions":[1.609E1,5.7E0,1E1,6.0076E4,8E0,5.9E4,1.4E1,7.2E-1,1.17E0,8.89E0,3.1604E4,3.061E1,4.7365382E-2,1.861E1,2.283E1,8E0,1E0,-2.581888E-2,-8.199243E-2,1.65E4,1.1E4,1E1,1E0,7E0,9E0,-4.487944E-3,4.5078E4,-4.3720724E-3,-4.94844E-2,-2.252414E-2,5.346E4,2.8569E4,2.178E4,1.25E4,5.71E0,1E0,2.3E4,1.8828E4,-4.391395E-2,6.8E0,9.29E0,2.2884397E-1,1.854E1,2.8746602E-1,6.973314E-2,2.9375793E-2,1.2E1,-4.3236367E-2,-1.7579198E-2,-1.9167297E-2,2.935522E-3,-1.6194357E-2,-2.8067784E-2,9.4885975E-3,7.112661E-2,3.944478E-2,-3.375857E-2,-4.2347327E-2,9.607526E-2,1.296022E-1,5.6601077E-2,6.6897266E-2,1.816255E-2,1.65032E-2,-3.774525E-2,-5.2384487E-3,3.8112484E-2,8.0159E-2,-8.9775756E-2,9.312864E-2,4.00324E-2],"split_indices":[0,0,6,1,6,1,6,0,0,0,1,0,0,0,0,6,3,0,0,1,1,6,2,6,6,0,1,0,0,0,1,1,1,1,0,2,1,1,0,0,0,0,0,0,0,0,6,0,0,0,0,0,0,0,0,0,0,0,0,0,0,0,0,0,0,0,0,0,0,0,0],"split_type":[0,0,0,0,0,0,0,0,0,0,0,0,0,0,0,0,0,0,0,0,0,0,0,0,0,0,0,0,0,0,0,0,0,0,0,0,0,0,0,0,0,0,0,0,0,0,0,0,0,0,0,0,0,0,0,0,0,0,0,0,0,0,0,0,0,0,0,0,0,0,0],"sum_hessian":[2.99E2,2.73E2,2.6E1,1.29E2,1.44E2,1.2E1,1.4E1,1.22E2,7E0,3.7E1,1.07E2,1.1E1,1E0,1.1E1,3E0,2.9E1,9.3E1,4E0,3E0,1.8E1,1.9E1,2.1E1,8.6E1,7E0,4E0,1E0,1E1,2E0,1E0,1.1E1,1.8E1,2.5E1,6.8E1,1.2E1,6E0,5E0,1.4E1,2E1,1E0,5.1E1,3.5E1,4E0,3E0,3E0,1E0,2E0,8E0,1.6E1,2E0,1.2E1,1.3E1,4.3E1,2.5E1,9E0,3E0,1E0,5E0,3E0,2E0,5E0,9E0,7E0,1.3E1,1E1,4.1E1,1.6E1,1.9E1,1E0,2E0,5E0,3E0],"tree_param":{"num_deleted":"0","num_feature":"7","num_nodes":"71","size_leaf_vector":"1"}},{"base_weights":[1.5521053E-2,-2.4290146E-2,2.1036966E-1,-5.4574523E-2,2.0927146E-2,1.4565267E-1,4.9619865E-1,-3.546225E-2,-9.981177E-2,1.7074847E-1,-1.1426557E-2,1.7392148E-1,8.626599E-2,2.2278614E-1,2.4921767E-1,-3.2172367E-2,-5.762848E-2,-4.6520457E-2,-1.14117436E-1,1.1993776E-1,1.17130935E-1,4.876396E-5,-2.4094516E-1,1.1472724E-1,-8.805339E-2,8.21576E-2,1.8901922E-2,-4.867912E-2,9.333626E-3,-8.459783E-2,2.4965549E-2,-2.1060085E-1,-9.798675E-2,-7.4793294E-2,1.872877E-1,-1.8254288E-1,1.4463252E-2,-1.463213E-2,-8.662331E-2,5.641206E-2,2.4743472E-1,-2.7850755E-2,-1.2856203E-2,-8.0506806E-4,5.5477384E-2,-2.9226856E-2,2.700341E-3,-2.1513058E-2,-9.409093E-2,-2.4129279E-2,-5.1957265E-2,1.4839245E-2,7.75081E-2,-2.975527E-2,-8.990043E-2,4.5042645E-2,-1.8009596E-3,6.4229205E-2,3.2528401E-3,1.4385074E-1,3.014146E-2],"categories":[],"categories_nodes":[],"categories_segments":[],"categories_sizes":[],"default_left":[0,0,0,0,0,0,0,0,0,0,0,0,0,0,0,0,0,0,0,0,0,0,0,0,0,0,0,0,0,0,0,0,0,0,0,0,0,0,0,0,0,0,0,0,0,0,0,0,0,0,0,0,0,0,0,0,0,0,0,0,0],"id":12,"left_children":[1,3,5,7,9,11,13,15,17,19,21,-1,23,-1,25,27,-1,29,31,-1,33,35,37,39,-1,-1,-1,41,43,45,-1,47,49,-1,51,53,55,-1,-1,57,59,-1,-1,-1,-1,-1,-1,-1,-1,-1,-1,-1,-1,-1,-1,-1,-1,-1,-1,-1,-1],"loss_changes":[2.3322573E0,3.434865E-1,8.71125E-1,1.2614843E-1,4.9152577E-1,1.058481E0,3.6267924E-1,4.895729E-2,2.8235376E-2,1.7422599E-1,2.2125092E-1,0E0,4.5522213E-1,0E0,1.0275722E-2,7.307805E-2,0E0,6.1381407E-2,3.227955E-2,0E0,4.58027E-1,2.1582934E-1,2.2659406E-2,2.7237955E-1,0E0,0E0,0E0,1.5570164E-2,6.590965E-2,1.1680596E-2,0E0,3.4751788E-2,2.699849E-2,0E0,1.2435719E-1,2.8858036E-2,2.1194309E-1,0E0,0E0,1.9168982E-1,3.2698315E-1,0E0,0E0,0E0,0E0,0E0,0E0,0E0,0E0,0E0,0E0,0E0,0E0,0E0,0E0,0E0,0E0,0E0,0E0,0E0,0E0],"parents":[2147483647,0,0,1,1,2,2,3,3,4,4,5,5,6,6,7,7,8,8,9,9,10,10,12,12,14,14,15,15,17,17,18,18,20,20,21,21,22,22,23,23,27,27,28,28,29,29,31,31,32,32,34,34,35,35,36,36,39,39,40,40],"right_children":[2,4,6,8,10,12,14,16,18,20,22,-1,24,-1,26,28,-1,30,32,-1,34,36,38,40,-1,-1,-1,42,44,46,-1,48,50,-1,52,54,56,-1,-1,58,60,-1,-1,-1,-1,-1,-1,-1,-1,-1,-1,-1,-1,-1,-1,-1,-1,-1,-1,-1,-1],"split_conditions":[1.346E1,6.1E0,3.061E1,1.1E1,1.66E4,7E0,9E0,5.98E0,2.0114E4,3.493E3,1.18E1,1.7392148E-1,2.315E1,2.2278614E-1,1.27E5,3.76E0,-5.762848E-2,1.78E0,2.4E4,1.1993776E-1,7E3,2E4,4.5078E4,1E0,-8.805339E-2,8.21576E-2,1.8901922E-2,5.2E-1,1E0,1.5E4,2.4965549E-2,2.2671E4,1.7E1,-7.4793294E-2,1.25E4,9.54E0,3.1604E4,-1.463213E-2,-8.662331E-2,2.3E4,3.8488E4,-2.7850755E-2,-1.2856203E-2,-8.0506806E-4,5.5477384E-2,-2.9226856E-2,2.700341E-3,-2.1513058E-2,-9.409093E-2,-2.4129279E-2,-5.1957265E-2,1.4839245E-2,7.75081E-2,-2.975527E-2,-8.990043E-2,4.5042645E-2,-1.8009596E-3,6.4229205E-2,3.2528401E-3,1.4385074E-1,3.014146E-2],"split_indices":[0,0,0,6,1,6,6,0,1,1,0,0,0,0,1,0,0,0,1,0,1,1,1,2,0,0,0,0,4,1,0,1,6,0,1,0,1,0,0,1,1,0,0,0,0,0,0,0,0,0,0,0,0,0,0,0,0,0,0,0,0],"split_type":[0,0,0,0,0,0,0,0,0,0,0,0,0,0,0,0,0,0,0,0,0,0,0,0,0,0,0,0,0,0,0,0,0,0,0,0,0,0,0,0,0,0,0,0,0,0,0,0,0,0,0,0,0,0,0,0,0,0,0,0,0],"sum_hessian":[2.99E2,2.49E2,5E1,1.49E2,1E2,4.2E1,8E0,1.06E2,4.3E1,1.7E1,8.3E1,4E0,3.8E1,3E0,5E0,1.05E2,1E0,1E1,3.3E1,2E0,1.5E1,8E1,3E0,3.6E1,2E0,4E0,1E0,7.5E1,3E1,8E0,2E0,3E0,3E1,2E0,1.3E1,5E0,7.5E1,1E0,2E0,2.6E1,1E1,7E0,6.8E1,2.9E1,1E0,7E0,1E0,2E0,1E0,2.6E1,4E0,5E0,8E0,4E0,1E0,9E0,6.6E1,5E0,2.1E1,3E0,7E0],"tree_param":{"num_deleted":"0","num_feature":"7","num_nodes":"61","size_leaf_vector":"1"}},{"base_weights":[1.2111737E-2,-9.576194E-3,2.317555E-1,-3.9781597E-2,2.6746897E-2,3.084896E-1,1.0950834E-2,-2.5231648E-2,-7.42603E-2,1.410126E-1,7.454959E-3,3.5333174E-1,1.4496922E-1,-4.158954E-2,1.123813E-1,-2.2388915E-2,-4.898422E-2,-3.2706216E-2,-8.552014E-2,4.0478405E-2,7.848616E-2,-2.6610807E-2,6.3772455E-2,2.4407768E-1,5.230244E-1,5.255628E-3,5.008667E-2,-1.1435842E-2,-2.8853703E-2,5.1013615E-2,-4.4202807E-4,-3.4610994E-2,8.29712E-3,-6.216587E-2,1.9972444E-2,-1.7632161E-1,-7.104511E-2,9.595018E-2,-5.71377E-2,1.5771917E-1,-5.0348986E-2,8.250935E-2,-2.0106466E-1,1.3218029E-1,6.883567E-2,1.7265931E-1,4.6949673E-2,-1.7541707E-2,1.9481421E-3,-7.2673354E-3,-1.644917E-2,1.1122925E-2,-1.6754115E-2,-2.1554805E-2,2.2952915E-3,-1.7210454E-2,-7.997729E-2,-1.7158588E-2,-3.9487522E-2,-5.9834626E-2,3.6045825E-3,1.4587224E-2,9.700089E-2,1.2483768E-2,-2.283665E-2,3.4295578E-2,-1.6512387E-2,-8.25918E-2,-7.887304E-3,7.057394E-2,-6.943827E-2,-6.0721166E-3,-1.4168501E-3],"categories":[],"categories_nodes":[],"categories_segments":[],"categories_sizes":[],"default_left":[0,0,0,0,0,0,0,0,0,0,0,0,0,0,0,0,0,0,0,0,0,0,0,0,0,0,0,0,0,0,0,0,0,0,0,0,0,0,0,0,0,0,0,0,0,0,0,0,0,0,0,0,0,0,0,0,0,0,0,0,0,0,0,0,0,0,0,0,0,0,0,0,0],"id":13,"left_children":[1,3,5,7,9,11,13,15,17,19,21,23,25,27,29,31,-1,33,35,37,-1,39,41,43,45,-1,-1,47,-1,-1,-1,49,51,53,-1,55,57,-1,59,61,63,65,67,-1,69,-1,-1,71,-1,-1,-1,-1,-1,-1,-1,-1,-1,-1,-1,-1,-1,-1,-1,-1,-1,-1,-1,-1,-1,-1,-1,-1,-1],"loss_changes":[1.4313049E0,3.0168414E-1,4.5408952E-1,7.337579E-2,2.744996E-1,9.54299E-2,4.730744E-2,3.8335063E-2,1.7790213E-2,2.0766392E-1,2.088949E-1,1.5043569E-1,1.3888165E-2,8.776558E-3,1.9946534E-2,4.004217E-2,0E0,3.6311306E-2,3.216125E-2,3.182401E-1,0E0,3.0548576E-1,2.2004096E-1,3.485015E-1,6.1551332E-3,0E0,0E0,6.612925E-4,0E0,0E0,0E0,1.4632635E-2,5.929736E-2,6.634347E-3,0E0,2.7657568E-2,1.848133E-2,0E0,9.096752E-2,1.2882221E-1,1.4774624E-1,1.769321E-1,3.1688213E-2,0E0,4.042585E-1,0E0,0E0,4.2784144E-5,0E0,0E0,0E0,0E0,0E0,0E0,0E0,0E0,0E0,0E0,0E0,0E0,0E0,0E0,0E0,0E0,0E0,0E0,0E0,0E0,0E0,0E0,0E0,0E0,0E0],"parents":[2147483647,0,0,1,1,2,2,3,3,4,4,5,5,6,6,7,7,8,8,9,9,10,10,11,11,12,12,13,13,14,14,15,15,17,17,18,18,19,19,21,21,22,22,23,23,24,24,27,27,31,31,32,32,33,33,35,35,36,36,38,38,39,39,40,40,41,41,42,42,44,44,47,47],"right_children":[2,4,6,8,10,12,14,16,18,20,22,24,26,28,30,32,-1,34,36,38,-1,40,42,44,46,-1,-1,48,-1,-1,-1,50,52,54,-1,56,58,-1,60,62,64,66,68,-1,70,-1,-1,72,-1,-1,-1,-1,-1,-1,-1,-1,-1,-1,-1,-1,-1,-1,-1,-1,-1,-1,-1,-1,-1,-1,-1,-1,-1],"split_conditions":[1.609E1,6.1E0,1.2E1,1.1E1,1.62E4,5.9E4,1E0,5.98E0,2.0114E4,1.25E4,1E0,3.061E1,1.864E1,2.315E1,5.0456E4,3.76E0,-4.898422E-2,1.78E0,2.4E4,3.493E3,7.848616E-2,6.8E0,7.8E4,7E0,9E0,5.255628E-3,5.008667E-2,2.283E1,-2.8853703E-2,5.1013615E-2,-4.4202807E-4,2.178E4,5.71E0,1.5E4,1.9972444E-2,2.2671E4,1.7E1,9.595018E-2,7E3,3.2322E4,2.82E4,1.1E1,9.29E0,1.3218029E-1,1.864E1,1.7265931E-1,4.6949673E-2,1.864E1,1.9481421E-3,-7.2673354E-3,-1.644917E-2,1.1122925E-2,-1.6754115E-2,-2.1554805E-2,2.2952915E-3,-1.7210454E-2,-7.997729E-2,-1.7158588E-2,-3.9487522E-2,-5.9834626E-2,3.6045825E-3,1.4587224E-2,9.700089E-2,1.2483768E-2,-2.283665E-2,3.4295578E-2,-1.6512387E-2,-8.25918E-2,-7.887304E-3,7.057394E-2,-6.943827E-2,-6.0721166E-3,-1.4168501E-3],"split_indices":[0,0,6,6,1,1,2,0,1,1,2,0,0,0,1,0,0,0,1,1,0,0,1,6,6,0,0,0,0,0,0,1,0,1,0,1,6,0,1,1,1,6,0,0,0,0,0,0,0,0,0,0,0,0,0,0,0,0,0,0,0,0,0,0,0,0,0,0,0,0,0,0,0],"split_type":[0,0,0,0,0,0,0,0,0,0,0,0,0,0,0,0,0,0,0,0,0,0,0,0,0,0,0,0,0,0,0,0,0,0,0,0,0,0,0,0,0,0,0,0,0,0,0,0,0,0,0,0,0,0,0,0,0,0,0,0,0,0,0,0,0,0,0,0,0,0,0,0,0],"sum_hessian":[2.99E2,2.73E2,2.6E1,1.49E2,1.24E2,1.9E1,7E0,1.06E2,4.3E1,1.7E1,1.07E2,1.4E1,5E0,5E0,2E0,1.05E2,1E0,1E1,3.3E1,1E1,7E0,6.7E1,4E1,1E1,4E0,1E0,4E0,4E0,1E0,1E0,1E0,7.5E1,3E1,8E0,2E0,3E0,3E1,2E0,8E0,7E0,6E1,3.8E1,2E0,4E0,6E0,3E0,1E0,3E0,1E0,5.1E1,2.4E1,2.1E1,9E0,7E0,1E0,2E0,1E0,2.6E1,4E0,2E0,6E0,5E0,2E0,1.3E1,4.7E1,3.1E1,7E0,1E0,1E0,4E0,2E0,2E0,1E0],"tree_param":{"num_deleted":"0","num_feature":"7","num_nodes":"73","size_leaf_vector":"1"}},{"base_weights":[9.610665E-3,-1.4986782E-2,1.2999794E-1,3.913651E-2,-2.2826776E-2,9.175045E-2,2.9829174E-1,-3.135449E-3,1.4751323E-1,-1.9575069E-2,-1.9271222E-1,2.6000986E-1,3.9563846E-2,1.3381106E-1,1.5007973E-1,-1.8419001E-2,3.2996725E-2,2.0173523E-1,-2.817583E-2,-2.3169355E-2,1.3673763E-1,-9.960437E-3,-7.04446E-2,1.7058456E-1,1.2354222E-1,-2.4474446E-1,9.702198E-2,5.0607264E-2,8.553601E-3,-5.9277393E-2,-6.046171E-3,8.9603834E-2,-2.7083555E-2,-4.4831302E-2,3.2152176E-2,-3.5873692E-2,5.4777227E-3,7.7583794E-3,4.7397424E-2,2.5333008E-1,-1.5530396E-2,-6.18186E-2,-1.2211924E-1,1.3458775E-1,3.919747E-2,-4.783666E-3,-1.983719E-2,-7.217024E-3,1.4891536E-3,-2.1639992E-2,9.452391E-3,-6.430558E-3,-4.845105E-2,-9.115011E-3,3.3188794E-2,3.3920005E-2,8.855853E-2,-4.0557864E-3,-3.1007482E-2,6.2395316E-2,4.9397647E-3],"categories":[],"categories_nodes":[],"categories_segments":[],"categories_sizes":[],"default_left":[0,0,0,0,0,0,0,0,0,0,0,0,0,0,0,0,0,0,0,0,0,0,0,0,0,0,0,0,0,0,0,0,0,0,0,0,0,0,0,0,0,0,0,0,0,0,0,0,0,0,0,0,0,0,0,0,0,0,0,0,0],"id":14,"left_children":[1,3,5,7,9,11,13,15,17,19,21,23,25,-1,27,29,-1,31,33,35,37,-1,-1,39,-1,41,43,-1,-1,45,47,-1,49,-1,-1,51,53,-1,-1,55,-1,57,-1,-1,59,-1,-1,-1,-1,-1,-1,-1,-1,-1,-1,-1,-1,-1,-1,-1,-1],"loss_changes":[8.9031416E-1,1.06974915E-1,3.009091E-1,1.47064E-1,1.172071E-1,3.6729118E-1,1.3013732E-1,4.3520566E-2,9.1419965E-2,1.24523945E-1,1.9067377E-2,6.549746E-2,5.791637E-1,0E0,8.76537E-3,1.0763345E-2,0E0,1.633679E-1,6.52541E-2,7.735225E-2,7.6968446E-3,0E0,0E0,1.6030377E-1,0E0,1.5299067E-1,5.720233E-1,0E0,0E0,4.2898767E-4,3.6887547E-3,0E0,1.0191374E-2,0E0,0E0,2.6318234E-1,2.5223744E-1,0E0,0E0,1.8560886E-3,0E0,6.6280197E-3,0E0,0E0,9.633202E-2,0E0,0E0,0E0,0E0,0E0,0E0,0E0,0E0,0E0,0E0,0E0,0E0,0E0,0E0,0E0,0E0],"parents":[2147483647,0,0,1,1,2,2,3,3,4,4,5,5,6,6,7,7,8,8,9,9,10,10,11,11,12,12,14,14,15,15,17,17,18,18,19,19,20,20,23,23,25,25,26,26,29,29,30,30,32,32,35,35,36,36,39,39,41,41,44,44],"right_children":[2,4,6,8,10,12,14,16,18,20,22,24,26,-1,28,30,-1,32,34,36,38,-1,-1,40,-1,42,44,-1,-1,46,48,-1,50,-1,-1,52,54,-1,-1,56,-1,58,-1,-1,60,-1,-1,-1,-1,-1,-1,-1,-1,-1,-1,-1,-1,-1,-1,-1,-1],"split_conditions":[1.346E1,7E0,3.061E1,7.15E0,1.235E1,2.3E4,9E0,1.9434E4,9.85E0,1.1E1,4.5078E4,2.278E1,3E4,1.3381106E-1,1.27E5,1E0,3.2996725E-2,1.6E4,9.9E0,4.3535E4,9.8E3,-9.960437E-3,-7.04446E-2,1.977E1,1.2354222E-1,2.587E4,8E0,5.0607264E-2,8.553601E-3,3.76E0,8.2E-1,8.9603834E-2,8.89E0,-4.4831302E-2,3.2152176E-2,8.93E0,9.29E0,7.7583794E-3,4.7397424E-2,1.1E4,-1.5530396E-2,2.5E4,-1.2211924E-1,1.3458775E-1,1.36E1,-4.783666E-3,-1.983719E-2,-7.217024E-3,1.4891536E-3,-2.1639992E-2,9.452391E-3,-6.430558E-3,-4.845105E-2,-9.115011E-3,3.3188794E-2,3.3920005E-2,8.855853E-2,-4.0557864E-3,-3.1007482E-2,6.2395316E-2,4.9397647E-3],"split_indices":[0,6,0,0,0,1,6,1,0,0,1,0,1,0,1,3,0,1,0,1,1,0,0,0,0,1,6,0,0,0,0,0,0,0,0,0,0,0,0,1,0,1,0,0,0,0,0,0,0,0,0,0,0,0,0,0,0,0,0,0,0],"split_type":[0,0,0,0,0,0,0,0,0,0,0,0,0,0,0,0,0,0,0,0,0,0,0,0,0,0,0,0,0,0,0,0,0,0,0,0,0,0,0,0,0,0,0,0,0,0,0,0,0,0,0,0,0,0,0,0,0,0,0,0,0],"sum_hessian":[2.99E2,2.49E2,5E1,3.1E1,2.18E2,4.2E1,8E0,2.3E1,8E0,2.15E2,3E0,9E0,3.3E1,3E0,5E0,2.1E1,2E0,6E0,2E0,2.11E2,4E0,1E0,2E0,7E0,2E0,5E0,2.8E1,4E0,1E0,4E0,1.7E1,4E0,2E0,1E0,1E0,1.46E2,6.5E1,1E0,3E0,5E0,2E0,3E0,2E0,3E0,2.5E1,1E0,3E0,6E0,1.1E1,1E0,1E0,1.32E2,1.4E1,4.9E1,1.6E1,2E0,3E0,2E0,1E0,2E0,2.3E1],"tree_param":{"num_deleted":"0","num_feature":"7","num_nodes":"61","size_leaf_vector":"1"}},{"base_weights":[8.325911E-3,-5.5011846E-3,1.4833696E-1,6.2986193E-3,-3.807734E-2,2.1881552E-1,2.5930362E-2,-5.8026593E-3,5.8677893E-2,-5.2961394E-2,1.300386E-3,1.5602808E-1,3.0792117E-1,-2.6974201E-2,9.481068E-2,-1.5849577E-2,7.223416E-2,7.2666615E-2,-6.883571E-2,-4.3656543E-2,-3.5571992E-2,2.4542319E-2,-4.3899596E-2,8.452824E-2,5.7941616E-2,1.1932068E-1,8.552822E-2,-3.3958752E-3,-2.5266625E-2,1.8522581E-2,1.3949521E-1,-1.9697365E-3,-8.036847E-2,2.9398035E-2,6.765604E-2,9.3163915E-2,-1.19727135E-1,-5.3886067E-2,-1.1970429E-2,-3.0998094E-2,5.2560825E-2,-4.1785527E-2,1.4689803E-1,-4.1328194E-3,4.2620517E-2,5.8743954E-3,-4.3872837E-3,-4.4976715E-3,1.28328325E-2,5.5502273E-2,7.270575E-3,-4.132458E-3,2.494754E-2,-3.3621787E-4,-5.181923E-2,-5.1020463E-3,4.0467024E-2,1.6757447E-2,1.0769778E-1,-4.56254E-2,-3.3981802E-3,-1.2855678E-2,-3.4117572E-2,1.7107362E-2,-1.1511412E-2,1.3425565E-2,-1.5324521E-2,2.5150293E-2,-4.273081E-3,7.7473167E-3,6.029363E-2,-1.1166573E-3,3.0941966E-3],"categories":[],"categories_nodes":[],"categories_segments":[],"categories_sizes":[],"default_left":[0,0,0,0,0,0,0,0,0,0,0,0,0,0,0,0,0,0,0,0,0,0,0,0,0,0,0,0,0,0,0,0,0,0,0,0,0,0,0,0,0,0,0,0,0,0,0,0,0,0,0,0,0,0,0,0,0,0,0,0,0,0,0,0,0,0,0,0,0,0,0,0,0],"id":15,"left_children":[1,3,5,7,9,11,13,15,17,19,21,23,25,27,29,31,33,35,-1,37,-1,39,-1,-1,41,-1,43,45,-1,47,49,51,53,55,-1,57,59,61,63,65,67,-1,69,-1,-1,71,-1,-1,-1,-1,-1,-1,-1,-1,-1,-1,-1,-1,-1,-1,-1,-1,-1,-1,-1,-1,-1,-1,-1,-1,-1,-1,-1],"loss_changes":[5.815999E-1,1.05563305E-1,2.2725612E-1,1.2837945E-1,4.2854182E-2,4.7065794E-2,4.2642355E-2,1.3050976E-1,1.6983533E-1,2.7180493E-2,7.564782E-2,1.3166645E-1,8.582699E-2,9.162655E-3,1.4460679E-2,1.3148195E-1,1.1812752E-1,1.5706572E-1,0E0,1.491338E-2,0E0,3.1196313E-2,0E0,0E0,1.6081734E-1,0E0,1.8801184E-2,7.104508E-4,0E0,3.079867E-3,1.1253558E-2,1.23749256E-1,1.901135E-1,8.0619544E-2,0E0,3.1712332E-1,1.2307506E-2,1.889576E-2,2.586803E-2,1.29353525E-2,2.8353795E-2,0E0,3.409636E-2,0E0,0E0,2.0881035E-4,0E0,0E0,0E0,0E0,0E0,0E0,0E0,0E0,0E0,0E0,0E0,0E0,0E0,0E0,0E0,0E0,0E0,0E0,0E0,0E0,0E0,0E0,0E0,0E0,0E0,0E0,0E0],"parents":[2147483647,0,0,1,1,2,2,3,3,4,4,5,5,6,6,7,7,8,8,9,9,10,10,11,11,12,12,13,13,14,14,15,15,16,16,17,17,19,19,21,21,24,24,26,26,27,27,29,29,30,30,31,31,32,32,33,33,35,35,36,36,37,37,38,38,39,39,40,40,42,42,45,45],"right_children":[2,4,6,8,10,12,14,16,18,20,22,24,26,28,30,32,34,36,-1,38,-1,40,-1,-1,42,-1,44,46,-1,48,50,52,54,56,-1,58,60,62,64,66,68,-1,70,-1,-1,72,-1,-1,-1,-1,-1,-1,-1,-1,-1,-1,-1,-1,-1,-1,-1,-1,-1,-1,-1,-1,-1,-1,-1,-1,-1,-1,-1],"split_conditions":[1.609E1,1.1E1,5.9E4,1E0,7.85E0,4.5078E4,2.539E1,1E0,7.8E4,6.8E0,9.2233E4,7E0,1.1E1,2.315E1,9E4,8.4E0,9.95E0,1.37E1,-6.883571E-2,4.6E0,-3.5571992E-2,1.2E1,-4.3899596E-2,8.452824E-2,2.9223E4,1.1932068E-1,1.861E1,1.4E1,-2.5266625E-2,3.596E1,1.27E5,7.13E0,2.82E4,3.2322E4,6.765604E-2,1.346E1,1.489E1,3.98E0,4.89E0,3.3E4,1.16E1,-4.1785527E-2,1.864E1,-4.1328194E-3,4.2620517E-2,6E4,-4.3872837E-3,-4.4976715E-3,1.28328325E-2,5.5502273E-2,7.270575E-3,-4.132458E-3,2.494754E-2,-3.3621787E-4,-5.181923E-2,-5.1020463E-3,4.0467024E-2,1.6757447E-2,1.0769778E-1,-4.56254E-2,-3.3981802E-3,-1.2855678E-2,-3.4117572E-2,1.7107362E-2,-1.1511412E-2,1.3425565E-2,-1.5324521E-2,2.5150293E-2,-4.273081E-3,7.7473167E-3,6.029363E-2,-1.1166573E-3,3.0941966E-3],"split_indices":[0,6,1,2,0,1,0,4,1,0,1,6,6,0,1,0,0,0,0,0,0,6,0,0,1,0,0,6,0,0,1,0,1,1,0,0,0,0,0,1,0,0,0,0,0,1,0,0,0,0,0,0,0,0,0,0,0,0,0,0,0,0,0,0,0,0,0,0,0,0,0,0,0],"split_type":[0,0,0,0,0,0,0,0,0,0,0,0,0,0,0,0,0,0,0,0,0,0,0,0,0,0,0,0,0,0,0,0,0,0,0,0,0,0,0,0,0,0,0,0,0,0,0,0,0,0,0,0,0,0,0,0,0,0,0,0,0,0,0,0,0,0,0,0,0,0,0,0,0],"sum_hessian":[2.99E2,2.73E2,2.6E1,2.01E2,7.2E1,1.6E1,1E1,1.64E2,3.7E1,5.2E1,2E1,1.1E1,5E0,6E0,4E0,1.46E2,1.8E1,3.6E1,1E0,4.7E1,5E0,1.8E1,2E0,4E0,7E0,3E0,2E0,5E0,1E0,2E0,2E0,1.21E2,2.5E1,1.5E1,3E0,3.3E1,3E0,3.5E1,1.2E1,6E0,1.2E1,2E0,5E0,1E0,1E0,3E0,2E0,1E0,1E0,1E0,1E0,1.07E2,1.4E1,1.4E1,1.1E1,1.1E1,4E0,3E1,3E0,2E0,1E0,3.1E1,4E0,3E0,9E0,1E0,5E0,8E0,4E0,2E0,3E0,1E0,2E0],"tree_param":{"num_deleted":"0","num_feature":"7","num_nodes":"73","size_leaf_vector":"1"}},{"base_weights":[6.7895874E-3,-8.814533E-3,8.314724E-2,-4.60026E-3,-6.630426E-2,1.19232446E-1,1.0367023E-2,-1.368994E-2,2.4536401E-2,-1.3877481E-1,-2.4543626E-2,4.0010262E-2,1.7268746E-1,-1.5452794E-2,8.05891E-2,3.246711E-4,-6.748452E-2,4.5343228E-2,-8.915962E-2,-1.6836521E-1,1.3765813E-3,-1.4296844E-2,-2.0588735E-2,1.3823955E-1,-7.940405E-2,1.1532685E-1,2.8730774E-1,1.7246105E-2,-2.5485625E-2,1.574421E-2,1.1857096E-1,-1.7847823E-2,2.8875649E-2,-3.7187908E-3,-1.6075967E-1,2.86175E-3,1.8797532E-1,-5.998942E-2,3.9477397E-2,-1.2015081E-2,-5.7129417E-2,-2.9777836E-2,2.0239351E-2,8.3959386E-2,8.192807E-2,8.413124E-2,6.83531E-2,9.412194E-2,2.3272134E-2,-1.1358651E-2,-2.0636799E-2,-3.8230421E-3,1.0907937E-2,4.7176983E-2,6.179953E-3,-3.2800853E-3,-3.3155907E-2,6.8241255E-3,3.886938E-2,-2.0437565E-2,1.829926E-2,-1.05011135E-1,-3.1414244E-2,4.0444504E-3,-5.8510352E-2,1.1763014E-1,1.8724753E-2,-7.4293616E-4,3.109392E-2,-1.1760182E-2,-3.019065E-4,7.211794E-3,1.3259199E-3,3.7746765E-2,-1.6698647E-2,9.441376E-6,5.329843E-2,-6.997061E-3,2.2991754E-3],"categories":[],"categories_nodes":[],"categories_segments":[],"categories_sizes":[],"default_left":[0,0,0,0,0,0,0,0,0,0,0,0,0,0,0,0,0,0,0,0,0,0,0,0,0,0,0,0,0,0,0,0,0,0,0,0,0,0,0,0,0,0,0,0,0,0,0,0,0,0,0,0,0,0,0,0,0,0,0,0,0,0,0,0,0,0,0,0,0,0,0,0,0,0,0,0,0,0,0],"id":16,"left_children":[1,3,5,7,9,11,13,15,17,19,21,23,25,27,29,31,33,35,37,39,-1,41,-1,43,-1,45,47,-1,49,51,53,55,57,59,61,63,65,-1,67,-1,-1,69,71,73,-1,-1,75,-1,-1,77,-1,-1,-1,-1,-1,-1,-1,-1,-1,-1,-1,-1,-1,-1,-1,-1,-1,-1,-1,-1,-1,-1,-1,-1,-1,-1,-1,-1,-1],"loss_changes":[3.581811E-1,6.0264327E-2,1.3270465E-1,6.2309146E-2,4.8043035E-2,1.370748E-1,3.3881508E-2,1.3497183E-1,1.3651937E-1,2.6225649E-2,4.439634E-3,4.8553205E-1,9.8359466E-2,1.1710191E-2,1.0447837E-2,7.470984E-2,2.1946922E-1,2.9030472E-1,1.3617682E-1,6.53027E-3,0E0,6.4838836E-3,0E0,6.490995E-2,0E0,9.716919E-2,8.924186E-3,0E0,7.171398E-3,2.2252202E-3,8.130766E-3,5.5177823E-2,3.16092E-2,1.0002283E-1,1.2246847E-1,8.24905E-2,2.5745502E-1,0E0,1.3717359E-2,0E0,0E0,2.1294057E-3,1.3420836E-4,6.545353E-2,0E0,0E0,9.708001E-2,0E0,0E0,2.6823813E-3,0E0,0E0,0E0,0E0,0E0,0E0,0E0,0E0,0E0,0E0,0E0,0E0,0E0,0E0,0E0,0E0,0E0,0E0,0E0,0E0,0E0,0E0,0E0,0E0,0E0,0E0,0E0,0E0,0E0],"parents":[2147483647,0,0,1,1,2,2,3,3,4,4,5,5,6,6,7,7,8,8,9,9,10,10,11,11,12,12,13,13,14,14,15,15,16,16,17,17,18,18,19,19,21,21,23,23,25,25,26,26,28,28,29,29,30,30,31,31,32,32,33,33,34,34,35,35,36,36,38,38,41,41,42,42,43,43,46,46,49,49],"right_children":[2,4,6,8,10,12,14,16,18,20,22,24,26,28,30,32,34,36,38,40,-1,42,-1,44,-1,46,48,-1,50,52,54,56,58,60,62,64,66,-1,68,-1,-1,70,72,74,-1,-1,76,-1,-1,78,-1,-1,-1,-1,-1,-1,-1,-1,-1,-1,-1,-1,-1,-1,-1,-1,-1,-1,-1,-1,-1,-1,-1,-1,-1,-1,-1,-1,-1],"split_conditions":[1.346E1,1.5E1,5.9E4,4.3535E4,1E0,3E4,2.539E1,3.5E4,9.94E0,2E1,1.9E1,2.5E4,1E0,9E0,9E4,4.6E0,7.5E0,9.29E0,1E1,5.1E4,1.3765813E-3,1.7E1,-2.0588735E-2,2.278E1,-7.940405E-2,8E0,9E0,1.7246105E-2,9E4,3.596E1,1.27E5,4.41E0,3.4E4,5.87E0,3.6054E4,8.1E0,1E1,-5.998942E-2,7E4,-1.2015081E-2,-5.7129417E-2,1E0,9.2233E4,1.977E1,8.192807E-2,8.413124E-2,5.0024E4,9.412194E-2,2.3272134E-2,7.5E4,-2.0636799E-2,-3.8230421E-3,1.0907937E-2,4.7176983E-2,6.179953E-3,-3.2800853E-3,-3.3155907E-2,6.8241255E-3,3.886938E-2,-2.0437565E-2,1.829926E-2,-1.05011135E-1,-3.1414244E-2,4.0444504E-3,-5.8510352E-2,1.1763014E-1,1.8724753E-2,-7.4293616E-4,3.109392E-2,-1.1760182E-2,-3.019065E-4,7.211794E-3,1.3259199E-3,3.7746765E-2,-1.6698647E-2,9.441376E-6,5.329843E-2,-6.997061E-3,2.2991754E-3],"split_indices":[0,6,1,1,3,1,0,1,0,6,6,1,4,6,1,0,0,0,6,1,0,6,0,0,0,6,6,0,1,0,1,0,1,0,1,0,6,0,1,0,0,5,1,0,0,0,1,0,0,1,0,0,0,0,0,0,0,0,0,0,0,0,0,0,0,0,0,0,0,0,0,0,0,0,0,0,0,0,0],"split_type":[0,0,0,0,0,0,0,0,0,0,0,0,0,0,0,0,0,0,0,0,0,0,0,0,0,0,0,0,0,0,0,0,0,0,0,0,0,0,0,0,0,0,0,0,0,0,0,0,0,0,0,0,0,0,0,0,0,0,0,0,0,0,0,0,0,0,0,0,0,0,0,0,0,0,0,0,0,0,0],"sum_hessian":[2.99E2,2.49E2,5E1,2.33E2,1.6E1,3.3E1,1.7E1,1.78E2,5.5E1,5E0,1.1E1,1.4E1,1.9E1,1.3E1,4E0,1.42E2,3.6E1,4.7E1,8E0,4E0,1E0,1E1,1E0,1.1E1,3E0,1.4E1,5E0,1E0,1.2E1,2E0,2E0,8.7E1,5.5E1,2.2E1,1.4E1,3.7E1,1E1,4E0,4E0,1E0,3E0,7E0,3E0,9E0,2E0,2E0,1.2E1,4E0,1E0,1E1,2E0,1E0,1E0,1E0,1E0,8.2E1,5E0,5.3E1,2E0,1.1E1,1.1E1,2E0,1.2E1,3.6E1,1E0,3E0,7E0,3E0,1E0,5E0,2E0,2E0,1E0,7E0,2E0,8E0,4E0,6E0,4E0],"tree_param":{"num_deleted":"0","num_feature":"7","num_nodes":"79","size_leaf_vector":"1"}},{"base_weights":[5.292119E-3,-3.4678348E-3,9.3993425E-2,1.9689836E-2,-1.2950634E-2,1.3636112E-1,1.997122E-2,1.358683E-4,7.834494E-2,7.253936E-2,-1.5120788E-2,9.342396E-2,1.9950859E-1,6.187479E-2,-2.5260886E-2,7.695333E-3,-8.6069204E-2,-1.18534565E-2,1.09201305E-1,-7.164775E-3,3.0784648E-2,-2.7460974E-2,3.505735E-3,1.771576E-1,2.9412448E-2,5.0843555E-2,7.833907E-2,1.7223239E-2,1.00785255E-1,-5.80492E-3,-1.8381108E-2,2.0059017E-3,4.8945524E-2,-4.279969E-2,2.1047473E-2,-3.2735433E-2,3.653517E-2,1.9350322E-1,4.7700025E-2,-1.9501695E-2,-7.303666E-2,7.035369E-2,-2.1183962E-2,7.678795E-2,6.5542415E-2,-7.939339E-2,7.8913294E-2,2.6393939E-2,-3.5143376E-3,9.055663E-3,-3.24955E-3,4.0100385E-2,5.2529816E-3,1.3756753E-4,-3.0400278E-3,-3.51482E-3,6.6610016E-3,7.672184E-2,1.3806153E-2,-5.8222298E-2,3.972087E-2,-7.89419E-3,3.157022E-2,-9.481718E-3,4.0658746E-2,-2.1317039E-2,-3.4773967E-3,4.876385E-2,-1.4209271E-2,-5.8290483E-3,-2.9897977E-2,6.1959745E-3,3.0864002E-2],"categories":[],"categories_nodes":[],"categories_segments":[],"categories_sizes":[],"default_left":[0,0,0,0,0,0,0,0,0,0,0,0,0,0,0,0,0,0,0,0,0,0,0,0,0,0,0,0,0,0,0,0,0,0,0,0,0,0,0,0,0,0,0,0,0,0,0,0,0,0,0,0,0,0,0,0,0,0,0,0,0,0,0,0,0,0,0,0,0,0,0,0,0],"id":17,"left_children":[1,3,5,7,9,11,13,15,17,19,21,23,25,27,29,31,33,35,37,-1,-1,39,41,43,45,47,-1,49,51,53,-1,55,-1,-1,-1,-1,-1,57,59,61,-1,63,65,67,-1,69,71,-1,-1,-1,-1,-1,-1,-1,-1,-1,-1,-1,-1,-1,-1,-1,-1,-1,-1,-1,-1,-1,-1,-1,-1,-1,-1],"loss_changes":[2.3343177E-1,6.0425263E-2,8.1952766E-2,9.174455E-2,3.7274502E-2,2.7454436E-2,2.2412265E-2,4.041385E-2,5.695831E-2,1.6950717E-2,4.3998532E-2,5.910837E-2,4.1689083E-2,8.688627E-3,3.8479248E-3,5.008687E-2,5.421874E-2,9.1277964E-2,6.854004E-2,0E0,0E0,1.929557E-1,1.2857547E-1,3.958687E-3,4.9353037E-2,8.000145E-3,0E0,1.7815981E-3,5.8744308E-3,1.4020425E-4,0E0,1.5780455E-2,0E0,0E0,0E0,0E0,0E0,4.3303326E-2,2.3048581E-1,9.793928E-2,0E0,1.4383379E-1,2.6445849E-2,3.9640076E-2,0E0,1.7093327E-3,6.253004E-3,0E0,0E0,0E0,0E0,0E0,0E0,0E0,0E0,0E0,0E0,0E0,0E0,0E0,0E0,0E0,0E0,0E0,0E0,0E0,0E0,0E0,0E0,0E0,0E0,0E0,0E0],"parents":[2147483647,0,0,1,1,2,2,3,3,4,4,5,5,6,6,7,7,8,8,9,9,10,10,11,11,12,12,13,13,14,14,15,15,16,16,17,17,18,18,21,21,22,22,23,23,24,24,25,25,27,27,28,28,29,29,31,31,37,37,38,38,39,39,41,41,42,42,43,43,45,45,46,46],"right_children":[2,4,6,8,10,12,14,16,18,20,22,24,26,28,30,32,34,36,38,-1,-1,40,42,44,46,48,-1,50,52,54,-1,56,-1,-1,-1,-1,-1,58,60,62,-1,64,66,68,-1,70,72,-1,-1,-1,-1,-1,-1,-1,-1,-1,-1,-1,-1,-1,-1,-1,-1,-1,-1,-1,-1,-1,-1,-1,-1,-1,-1],"split_conditions":[1.609E1,8E0,5.9E4,8.89E0,5.4E3,4.5078E4,1.2E1,8.12E0,1.1E4,6.4E-1,4.4E4,7E0,1.861E1,9E4,2.315E1,7.98E0,1E0,1E0,2.3E4,-7.164775E-3,3.0784648E-2,4.3E4,4.9562E4,2.045E1,2.9223E4,1.854E1,7.833907E-2,8E4,1.27E5,1.4E1,-1.8381108E-2,1.82E0,4.8945524E-2,-4.279969E-2,2.1047473E-2,-3.2735433E-2,3.653517E-2,1E0,3E4,4.1E4,-7.303666E-2,6.1E0,5.3E4,1.977E1,6.5542415E-2,2.278E1,1.864E1,2.6393939E-2,-3.5143376E-3,9.055663E-3,-3.24955E-3,4.0100385E-2,5.2529816E-3,1.3756753E-4,-3.0400278E-3,-3.51482E-3,6.6610016E-3,7.672184E-2,1.3806153E-2,-5.8222298E-2,3.972087E-2,-7.89419E-3,3.157022E-2,-9.481718E-3,4.0658746E-2,-2.1317039E-2,-3.4773967E-3,4.876385E-2,-1.4209271E-2,-5.8290483E-3,-2.9897977E-2,6.1959745E-3,3.0864002E-2],"split_indices":[0,6,1,0,1,1,6,0,1,0,1,6,0,1,0,0,4,2,1,0,0,1,1,0,1,0,0,1,1,6,0,0,0,0,0,0,0,2,1,1,0,0,1,0,0,0,0,0,0,0,0,0,0,0,0,0,0,0,0,0,0,0,0,0,0,0,0,0,0,0,0,0,0],"split_type":[0,0,0,0,0,0,0,0,0,0,0,0,0,0,0,0,0,0,0,0,0,0,0,0,0,0,0,0,0,0,0,0,0,0,0,0,0,0,0,0,0,0,0,0,0,0,0,0,0,0,0,0,0,0,0,0,0,0,0,0,0,0,0,0,0,0,0,0,0,0,0,0,0],"sum_hessian":[2.99E2,2.73E2,2.6E1,7.9E1,1.94E2,1.6E1,1E1,6E1,1.9E1,4E0,1.9E2,1.1E1,5E0,5E0,5E0,5.6E1,4E0,5E0,1.4E1,1E0,3E0,1.14E2,7.6E1,4E0,7E0,2E0,3E0,3E0,2E0,4E0,1E0,5.5E1,1E0,3E0,1E0,3E0,2E0,5E0,9E0,1.11E2,3E0,2E1,5.6E1,2E0,2E0,2E0,5E0,1E0,1E0,2E0,1E0,1E0,1E0,2E0,2E0,3.3E1,2.2E1,3E0,2E0,2E0,7E0,1.06E2,5E0,8E0,1.2E1,8E0,4.8E1,1E0,1E0,1E0,1E0,2E0,3E0],"tree_param":{"num_deleted":"0","num_feature":"7","num_nodes":"73","size_leaf_vector":"1"}},{"base_weights":[4.7689057E-3,-5.8277277E-3,5.6619678E-2,5.2850395E-3,-1.8303746E-2,9.340356E-2,1.7658114E-2,-5.9035458E-3,5.905234E-2,-7.081966E-2,-3.4250626E-3,2.7853902E-2,1.67557E-1,-9.207805E-2,3.063938E-2,1.0685454E-2,-4.378703E-2,8.957565E-3,1.1288686E-1,-2.9987656E-2,-2.0192842E-1,8.053768E-3,-6.877374E-2,1.07418925E-1,-1.5275994E-1,2.2265282E-1,1.1217749E-1,-5.8614495E-3,-3.5573676E-2,4.748914E-2,-2.782476E-2,-4.9613835E-3,7.1627036E-2,-3.0808996E-2,-7.080932E-2,2.9178122E-2,-2.9230952E-2,1.39577E-1,-2.3102188E-2,-5.0410036E-2,3.2804992E-2,-2.8960484E-1,-1.7717043E-2,-7.840387E-3,8.354338E-2,-6.3497834E-2,-4.1501038E-2,7.302984E-2,5.243397E-2,-1.2738038E-2,-6.3641936E-2,7.710902E-2,8.819371E-2,1.512928E-2,2.0544338E-1,5.764008E-4,5.996078E-2,-1.25577925E-2,-1.5623939E-2,2.1213128E-3,-1.7006535E-2,2.6837783E-2,-1.2703479E-3,-2.296578E-3,-2.2926163E-2,1.3820228E-2,-1.5890444E-2,-1.5076967E-2,4.6149045E-4,2.0545347E-2,8.4789425E-2,-2.1841004E-2,2.7986623E-2,-3.2389525E-2,-1.2517864E-1,1.5334368E-3,-9.506106E-3,2.6922233E-3,-2.5696358E-2,8.532536E-2,8.709799E-4,-1.0526205E-3,-3.7831962E-2,3.303509E-2,-1.1355019E-2,4.38077E-2,-9.108639E-3,2.4498368E-2,-3.7649777E-2,7.205687E-2,1.5180731E-2,8.824969E-3,-8.536768E-3,2.2045808E-2,5.4639247E-3,-5.1857E-3,-1.0931969E-3],"categories":[],"categories_nodes":[],"categories_segments":[],"categories_sizes":[],"default_left":[0,0,0,0,0,0,0,0,0,0,0,0,0,0,0,0,0,0,0,0,0,0,0,0,0,0,0,0,0,0,0,0,0,0,0,0,0,0,0,0,0,0,0,0,0,0,0,0,0,0,0,0,0,0,0,0,0,0,0,0,0,0,0,0,0,0,0,0,0,0,0,0,0,0,0,0,0,0,0,0,0,0,0,0,0,0,0,0,0,0,0,0,0,0,0,0,0],"id":18,"left_children":[1,3,5,7,9,11,13,15,17,19,21,23,25,27,29,31,33,35,37,39,41,43,45,47,49,51,53,-1,-1,55,57,59,61,63,-1,65,67,69,-1,71,-1,73,75,77,79,-1,81,83,-1,-1,-1,85,-1,87,89,91,93,95,-1,-1,-1,-1,-1,-1,-1,-1,-1,-1,-1,-1,-1,-1,-1,-1,-1,-1,-1,-1,-1,-1,-1,-1,-1,-1,-1,-1,-1,-1,-1,-1,-1,-1,-1,-1,-1,-1,-1],"loss_changes":[1.6516306E-1,3.475751E-2,7.1441695E-2,8.035876E-2,9.1958836E-2,1.21711925E-1,3.9858587E-2,7.022573E-2,6.101586E-2,1.3313392E-1,7.0315644E-2,2.3196746E-1,1.1637509E-2,3.450293E-3,2.4963938E-2,7.473172E-2,7.755639E-2,1.0891415E-2,6.6499785E-2,6.527006E-2,9.1775015E-2,9.66425E-2,4.5772217E-2,1.2717158E-2,2.374044E-2,2.9237002E-2,6.930209E-2,0E0,0E0,1.1081934E-2,1.5677977E-3,3.9612174E-2,2.2023305E-2,3.426554E-2,0E0,1.4926643E-2,3.31202E-3,8.234511E-2,0E0,6.793167E-2,0E0,4.7700793E-2,1.1187077E-3,8.8431664E-2,2.2595385E-1,0E0,4.1344173E-2,4.1177887E-2,0E0,0E0,0E0,2.66533E-2,0E0,5.702987E-2,9.3663335E-3,5.023555E-3,7.1313083E-3,1.4772784E-4,0E0,0E0,0E0,0E0,0E0,0E0,0E0,0E0,0E0,0E0,0E0,0E0,0E0,0E0,0E0,0E0,0E0,0E0,0E0,0E0,0E0,0E0,0E0,0E0,0E0,0E0,0E0,0E0,0E0,0E0,0E0,0E0,0E0,0E0,0E0,0E0,0E0,0E0,0E0],"parents":[2147483647,0,0,1,1,2,2,3,3,4,4,5,5,6,6,7,7,8,8,9,9,10,10,11,11,12,12,13,13,14,14,15,15,16,16,17,17,18,18,19,19,20,20,21,21,22,22,23,23,24,24,25,25,26,26,29,29,30,30,31,31,32,32,33,33,35,35,36,36,37,37,39,39,41,41,42,42,43,43,44,44,46,46,47,47,51,51,53,53,54,54,55,55,56,56,57,57],"right_children":[2,4,6,8,10,12,14,16,18,20,22,24,26,28,30,32,34,36,38,40,42,44,46,48,50,52,54,-1,-1,56,58,60,62,64,-1,66,68,70,-1,72,-1,74,76,78,80,-1,82,84,-1,-1,-1,86,-1,88,90,92,94,96,-1,-1,-1,-1,-1,-1,-1,-1,-1,-1,-1,-1,-1,-1,-1,-1,-1,-1,-1,-1,-1,-1,-1,-1,-1,-1,-1,-1,-1,-1,-1,-1,-1,-1,-1,-1,-1,-1,-1],"split_conditions":[1.346E1,3.1604E4,9E0,2.4678E4,3.6198E4,3E4,1.37E1,1.66E4,4.6E0,3.5934E4,9.94E0,2.35E4,3.8488E4,1.36E1,1.4E1,1.5E4,9.54E0,1.1E1,1E0,3.5775E4,1E1,9.4E0,1E1,2.278E1,2.587E4,3.4797E4,4.4E4,-5.8614495E-3,-3.5573676E-2,1.479E1,2.283E1,1.2E4,1.62E4,2.2517E4,-7.080932E-2,3.98E0,1.3E1,2.9E4,-2.3102188E-2,1E0,3.2804992E-2,7.13E0,3.6054E4,7.7E0,1E1,-6.3497834E-2,1.16E1,1.977E1,5.243397E-2,-1.2738038E-2,-6.3641936E-2,3.1E4,8.819371E-2,4.0534E4,4.9998E4,1.4E1,1.2E1,7.1E4,-1.5623939E-2,2.1213128E-3,-1.7006535E-2,2.6837783E-2,-1.2703479E-3,-2.296578E-3,-2.2926163E-2,1.3820228E-2,-1.5890444E-2,-1.5076967E-2,4.6149045E-4,2.0545347E-2,8.4789425E-2,-2.1841004E-2,2.7986623E-2,-3.2389525E-2,-1.2517864E-1,1.5334368E-3,-9.506106E-3,2.6922233E-3,-2.5696358E-2,8.532536E-2,8.709799E-4,-1.0526205E-3,-3.7831962E-2,3.303509E-2,-1.1355019E-2,4.38077E-2,-9.108639E-3,2.4498368E-2,-3.7649777E-2,7.205687E-2,1.5180731E-2,8.824969E-3,-8.536768E-3,2.2045808E-2,5.4639247E-3,-5.1857E-3,-1.0931969E-3],"split_indices":[0,1,6,1,1,1,0,1,0,1,0,1,1,0,6,1,0,6,4,1,6,0,0,0,1,1,1,0,0,0,0,1,1,1,0,0,6,1,0,4,0,0,1,0,6,0,0,0,0,0,0,1,0,1,1,0,6,1,0,0,0,0,0,0,0,0,0,0,0,0,0,0,0,0,0,0,0,0,0,0,0,0,0,0,0,0,0,0,0,0,0,0,0,0,0,0,0],"split_type":[0,0,0,0,0,0,0,0,0,0,0,0,0,0,0,0,0,0,0,0,0,0,0,0,0,0,0,0,0,0,0,0,0,0,0,0,0,0,0,0,0,0,0,0,0,0,0,0,0,0,0,0,0,0,0,0,0,0,0,0,0,0,0,0,0,0,0,0,0,0,0,0,0,0,0,0,0,0,0,0,0,0,0,0,0,0,0,0,0,0,0,0,0,0,0,0,0],"sum_hessian":[2.99E2,2.49E2,5E1,1.32E2,1.17E2,2.5E1,2.5E1,1.1E2,2.2E1,2.5E1,9.2E1,1.4E1,1.1E1,2E0,2.3E1,7.7E1,3.3E1,1.2E1,1E1,2E1,5E0,7.9E1,1.3E1,1E1,4E0,4E0,7E0,1E0,1E0,1.8E1,5E0,6.2E1,1.5E1,3.2E1,1E0,8E0,4E0,9E0,1E0,1.8E1,2E0,3E0,2E0,6.6E1,1.3E1,1E0,1.2E1,8E0,2E0,2E0,2E0,2E0,2E0,4E0,3E0,4E0,1.4E1,4E0,1E0,5.1E1,1.1E1,1.2E1,3E0,2.2E1,1E1,7E0,1E0,2E0,2E0,7E0,2E0,1.6E1,2E0,2E0,1E0,1E0,1E0,5.5E1,1.1E1,3E0,1E1,9E0,3E0,6E0,2E0,1E0,1E0,3E0,1E0,2E0,1E0,2E0,2E0,1E1,4E0,2E0,2E0],"tree_param":{"num_deleted":"0","num_feature":"7","num_nodes":"97","size_leaf_vector":"1"}},{"base_weights":[3.2501915E-3,-3.090601E-4,9.678953E-2,2.9035574E-3,-4.1599426E-2,1.304264E-1,4.7021072E-2,-3.3136792E-3,3.491286E-2,-1.0085638E-2,-6.4394295E-2,7.04319E-2,6.455985E-2,1.7303944E-2,7.0970215E-2,-1.4478106E-4,-6.007771E-2,6.283942E-2,9.022415E-3,-1.7321497E-2,3.7715607E-3,-3.5533085E-2,-3.3217456E-2,4.335308E-2,1.578474E-2,-6.0690884E-3,1.09676365E-2,3.0778456E-2,1.1581421E-3,-7.777661E-3,2.6732333E-2,-1.5263128E-1,-2.6303863E-2,3.2319922E-2,7.055493E-2,-5.4211073E-2,3.311197E-2,-2.5063155E-2,1.180695E-3,2.0601351E-3,-7.782948E-2,-1.5866948E-2,1.6891861E-2,-1.449965E-3,-5.072775E-2,-6.1708703E-3,2.5070868E-2,-8.496165E-3,-6.0187913E-2,3.8076736E-2,-2.4142725E-2,2.2727013E-2,-1.1062575E-2,-2.309724E-2,5.476475E-4,2.3906423E-2,9.5497374E-4,-2.1856428E-4,-8.935311E-3,-5.6207897E-3,5.1426534E-3,-2.7810313E-2,-4.9822214E-3],"categories":[],"categories_nodes":[],"categories_segments":[],"categories_sizes":[],"default_left":[0,0,0,0,0,0,0,0,0,0,0,0,0,0,0,0,0,0,0,0,0,0,0,0,0,0,0,0,0,0,0,0,0,0,0,0,0,0,0,0,0,0,0,0,0,0,0,0,0,0,0,0,0,0,0,0,0,0,0,0,0,0,0],"id":19,"left_children":[1,3,5,7,9,11,13,15,17,19,21,23,-1,25,27,29,31,33,35,37,-1,-1,39,-1,41,-1,-1,-1,-1,43,45,47,49,51,-1,53,55,57,-1,59,61,-1,-1,-1,-1,-1,-1,-1,-1,-1,-1,-1,-1,-1,-1,-1,-1,-1,-1,-1,-1,-1,-1],"loss_changes":[9.9908926E-2,3.8589332E-2,1.228182E-2,5.3848226E-2,1.4435951E-2,1.53586045E-2,3.0421345E-3,4.082393E-2,3.1246405E-2,1.857229E-3,1.6286649E-2,1.7959803E-2,0E0,3.6304584E-3,5.970898E-3,4.452027E-2,3.3495888E-2,1.0285557E-1,3.8353432E-2,1.4151642E-3,0E0,0E0,1.4324582E-2,0E0,1.41092E-2,0E0,0E0,0E0,0E0,7.945478E-2,1.307674E-1,1.2217067E-2,9.3219765E-2,5.9900247E-2,0E0,9.076027E-3,2.4837675E-2,6.676342E-4,0E0,2.203061E-3,2.1023452E-3,0E0,0E0,0E0,0E0,0E0,0E0,0E0,0E0,0E0,0E0,0E0,0E0,0E0,0E0,0E0,0E0,0E0,0E0,0E0,0E0,0E0,0E0],"parents":[2147483647,0,0,1,1,2,2,3,3,4,4,5,5,6,6,7,7,8,8,9,9,10,10,11,11,13,13,14,14,15,15,16,16,17,17,18,18,19,19,22,22,24,24,29,29,30,30,31,31,32,32,33,33,35,35,36,36,37,37,39,39,40,40],"right_children":[2,4,6,8,10,12,14,16,18,20,22,24,-1,26,28,30,32,34,36,38,-1,-1,40,-1,42,-1,-1,-1,-1,44,46,48,50,52,-1,54,56,58,-1,60,62,-1,-1,-1,-1,-1,-1,-1,-1,-1,-1,-1,-1,-1,-1,-1,-1,-1,-1,-1,-1,-1,-1],"split_conditions":[2.539E1,1.5E1,9E0,1.1E1,8E-1,3.596E1,9E4,9.94E0,3.8488E4,1.7E1,7.2E0,1.5001E4,6.455985E-2,3.596E1,1.27E5,4.3535E4,1.9E4,3.4797E4,4.5078E4,1E0,3.7715607E-3,-3.5533085E-2,9.2233E4,4.335308E-2,3.061E1,-6.0690884E-3,1.09676365E-2,3.0778456E-2,1.1581421E-3,4.3E4,6.8E0,9.95E0,4.2E4,2.3E4,7.055493E-2,1.489E1,5.9E4,5.4E-1,1.180695E-3,1.8E1,1.97176E5,-1.5866948E-2,1.6891861E-2,-1.449965E-3,-5.072775E-2,-6.1708703E-3,2.5070868E-2,-8.496165E-3,-6.0187913E-2,3.8076736E-2,-2.4142725E-2,2.2727013E-2,-1.1062575E-2,-2.309724E-2,5.476475E-4,2.3906423E-2,9.5497374E-4,-2.1856428E-4,-8.935311E-3,-5.6207897E-3,5.1426534E-3,-2.7810313E-2,-4.9822214E-3],"split_indices":[0,6,6,0,0,0,1,0,1,6,0,1,0,0,1,1,1,1,1,5,0,0,1,0,0,0,0,0,0,1,0,0,1,1,0,0,1,0,0,6,1,0,0,0,0,0,0,0,0,0,0,0,0,0,0,0,0,0,0,0,0,0,0],"split_type":[0,0,0,0,0,0,0,0,0,0,0,0,0,0,0,0,0,0,0,0,0,0,0,0,0,0,0,0,0,0,0,0,0,0,0,0,0,0,0,0,0,0,0,0,0,0,0,0,0,0,0,0,0,0,0,0,0,0,0,0,0,0,0],"sum_hessian":[2.99E2,2.89E2,1E1,2.69E2,2E1,5E0,5E0,2.26E2,4.3E1,9E0,1.1E1,4E0,1E0,3E0,2E0,2.15E2,1.1E1,2E1,2.3E1,7E0,2E0,3E0,8E0,1E0,3E0,1E0,2E0,1E0,1E0,1.68E2,4.7E1,2E0,9E0,1.8E1,2E0,6E0,1.7E1,5E0,2E0,5E0,3E0,1E0,2E0,1.66E2,2E0,2.6E1,2.1E1,1E0,1E0,2E0,7E0,1.1E1,7E0,4E0,2E0,6E0,1.1E1,1E0,4E0,2E0,3E0,2E0,1E0],"tree_param":{"num_deleted":"0","num_feature":"7","num_nodes":"63","size_leaf_vector":"1"}},{"base_weights":[2.506072E-3,-4.8010916E-4,8.1004836E-2,2.5175028E-2,-3.985772E-3,1.0945479E-1,3.9054077E-2,2.124491E-3,6.917819E-2,-6.8915263E-3,2.4390334E-2,5.8177948E-2,5.4875854E-2,1.3337612E-2,6.032467E-2,-1.0183949E-2,2.7503468E-2,4.4621754E-2,3.8392067E-2,-1.1546123E-2,1.1288608E-2,5.592897E-2,-3.438839E-2,3.6849976E-2,1.1305809E-2,-5.1587108E-3,8.774186E-3,2.6161624E-2,9.84478E-4,4.617947E-3,-5.0425332E-2,-3.4270193E-2,6.804318E-2,4.7657426E-4,-3.4471836E-2,-7.305136E-2,2.7469857E-2,2.5964534E-2,3.499735E-2,-1.2430438E-2,-2.2248246E-2,-1.3486863E-2,1.3513565E-2,-4.0763523E-3,4.735091E-3,-4.054034E-3,-1.6531507E-2,-1.2385298E-2,2.6060898E-2,-2.4144994E-3,5.041609E-2,-3.7688017E-2,-6.32202E-3,-2.9056815E-2,1.4037216E-2,6.0380403E-2,9.723574E-4,-2.8947056E-3,2.9881168E-2,-5.90981E-3,-6.1617047E-4],"categories":[],"categories_nodes":[],"categories_segments":[],"categories_sizes":[],"default_left":[0,0,0,0,0,0,0,0,0,0,0,0,0,0,0,0,0,0,0,0,0,0,0,0,0,0,0,0,0,0,0,0,0,0,0,0,0,0,0,0,0,0,0,0,0,0,0,0,0,0,0,0,0,0,0,0,0,0,0,0,0],"id":20,"left_children":[1,3,5,7,9,11,13,15,17,19,21,23,-1,25,27,29,-1,-1,31,33,35,37,39,-1,41,-1,-1,-1,-1,43,45,-1,47,49,51,53,55,57,-1,59,-1,-1,-1,-1,-1,-1,-1,-1,-1,-1,-1,-1,-1,-1,-1,-1,-1,-1,-1,-1,-1],"loss_changes":[7.036235E-2,2.6182437E-2,8.853808E-3,3.5353404E-2,2.1276312E-2,1.196035E-2,2.4774391E-3,2.7388047E-2,2.3682088E-2,1.9847076E-2,4.6414528E-2,1.37639325E-2,0E0,2.4460275E-3,4.3139076E-3,1.3337135E-2,0E0,0E0,5.3028166E-2,5.1283404E-2,6.7513555E-2,2.608633E-2,6.9380375E-3,0E0,9.618051E-3,0E0,0E0,0E0,0E0,3.670228E-3,2.917573E-4,0E0,2.2110619E-2,1.7706771E-1,7.5517915E-2,2.735439E-2,1.7199443E-1,3.243179E-2,0E0,4.875235E-4,0E0,0E0,0E0,0E0,0E0,0E0,0E0,0E0,0E0,0E0,0E0,0E0,0E0,0E0,0E0,0E0,0E0,0E0,0E0,0E0,0E0],"parents":[2147483647,0,0,1,1,2,2,3,3,4,4,5,5,6,6,7,7,8,8,9,9,10,10,11,11,13,13,14,14,15,15,18,18,19,19,20,20,21,21,22,22,24,24,29,29,30,30,32,32,33,33,34,34,35,35,36,36,37,37,39,39],"right_children":[2,4,6,8,10,12,14,16,18,20,22,24,-1,26,28,30,-1,-1,32,34,36,38,40,-1,42,-1,-1,-1,-1,44,46,-1,48,50,52,54,56,58,-1,60,-1,-1,-1,-1,-1,-1,-1,-1,-1,-1,-1,-1,-1,-1,-1,-1,-1,-1,-1,-1,-1],"split_conditions":[2.539E1,7E0,9E0,7.15E0,1E0,3.596E1,9E4,1.9434E4,3.493E3,1E0,1.3E1,1.5001E4,5.4875854E-2,3.596E1,1.27E5,1.9E0,2.7503468E-2,4.4621754E-2,7E3,6.8E0,6.8E0,3.2322E4,1.6E1,3.6849976E-2,3.061E1,-5.1587108E-3,8.774186E-3,2.6161624E-2,9.84478E-4,4E3,3.76E0,-3.4270193E-2,8.89E0,6.1E0,7.13E0,1E0,7.7E0,9.95E0,3.499735E-2,7.1E4,-2.2248246E-2,-1.3486863E-2,1.3513565E-2,-4.0763523E-3,4.735091E-3,-4.054034E-3,-1.6531507E-2,-1.2385298E-2,2.6060898E-2,-2.4144994E-3,5.041609E-2,-3.7688017E-2,-6.32202E-3,-2.9056815E-2,1.4037216E-2,6.0380403E-2,9.723574E-4,-2.8947056E-3,2.9881168E-2,-5.90981E-3,-6.1617047E-4],"split_indices":[0,6,6,0,4,0,1,1,1,2,6,1,0,0,1,0,0,0,1,0,0,1,6,0,0,0,0,0,0,1,0,0,0,0,0,5,0,0,0,1,0,0,0,0,0,0,0,0,0,0,0,0,0,0,0,0,0,0,0,0,0],"split_type":[0,0,0,0,0,0,0,0,0,0,0,0,0,0,0,0,0,0,0,0,0,0,0,0,0,0,0,0,0,0,0,0,0,0,0,0,0,0,0,0,0,0,0,0,0,0,0,0,0,0,0,0,0,0,0,0,0,0,0,0,0],"sum_hessian":[2.99E2,2.89E2,1E1,3.4E1,2.55E2,5E0,5E0,2.3E1,1.1E1,2.32E2,2.3E1,4E0,1E0,3E0,2E0,2.1E1,2E0,2E0,9E0,1.85E2,4.7E1,1.5E1,8E0,1E0,3E0,1E0,2E0,1E0,1E0,1.6E1,5E0,1E0,8E0,1.22E2,6.3E1,7E0,4E1,1.1E1,4E0,6E0,2E0,1E0,2E0,6E0,1E1,1E0,4E0,1E0,7E0,1.17E2,5E0,7E0,5.6E1,6E0,1E0,4E0,3.6E1,8E0,3E0,3E0,3E0],"tree_param":{"num_deleted":"0","num_feature":"7","num_nodes":"61","size_leaf_vector":"1"}},{"base_weights":[2.5464043E-3,-3.2220124E-3,3.0773027E-2,5.596571E-3,-1.3134297E-2,5.1875114E-2,8.487362E-3,-2.7923188E-3,4.3812457E-2,-4.9029272E-2,-2.9579138E-3,2.4666467E-3,1.0931277E-1,-6.712341E-2,1.7585069E-2,2.9076464E-3,-6.0082734E-2,1.582393E-2,9.781152E-2,-1.7272068E-2,-1.5200794E-1,5.3329202E-3,-3.552921E-2,4.644561E-2,-1.300869E-1,4.0646482E-2,4.556942E-2,-4.380727E-3,-2.582481E-2,4.2833276E-2,2.283886E-3,7.585422E-3,-6.099183E-2,-2.2947984E-2,-1.3908117E-1,4.7914196E-2,-3.1513209E-3,1.4666517E-1,-3.249963E-2,-3.3515256E-2,9.135882E-2,-2.576573E-1,-3.476894E-2,-6.1329096E-3,9.009711E-2,-5.2714135E-2,-1.7979303E-2,1.5932083E-3,6.867266E-2,-1.3437653E-2,-5.7895664E-2,-2.8683616E-2,1.047678E-1,6.6574095E-3,7.044248E-2,-8.251886E-3,2.711296E-2,6.747968E-4,2.5908805E-2,-4.3064296E-2,1.1043585E-2,-9.654038E-3,6.25155E-3,-5.1722363E-2,-1.0864163E-2,5.942547E-3,-5.2132275E-2,-1.706779E-2,5.9626583E-2,-1.8985106E-2,4.3602707E-3,-1.4673187E-2,1.9469071E-2,6.8260436E-3,3.4285426E-2,-1.0709775E-2,-1.0523601E-1,2.469206E-3,-1.5553714E-2,2.7078353E-3,-2.2909189E-2,-1.6516149E-2,5.1554468E-2,1.4292069E-2,-1.20391855E-2,2.7616883E-2,-2.6820278E-2,2.901454E-2,-3.0909542E-3,1.0810853E-2,4.6644405E-2,-6.4444547E-3,5.718756E-3,1.8746138E-3,2.5478626E-2,4.506612E-3,-4.3226625E-3,-1.8263817E-3,1.5382863E-2],"categories":[],"categories_nodes":[],"categories_segments":[],"categories_sizes":[],"default_left":[0,0,0,0,0,0,0,0,0,0,0,0,0,0,0,0,0,0,0,0,0,0,0,0,0,0,0,0,0,0,0,0,0,0,0,0,0,0,0,0,0,0,0,0,0,0,0,0,0,0,0,0,0,0,0,0,0,0,0,0,0,0,0,0,0,0,0,0,0,0,0,0,0,0,0,0,0,0,0,0,0,0,0,0,0,0,0,0,0,0,0,0,0,0,0,0,0,0,0],"id":21,"left_children":[1,3,5,7,9,11,13,15,17,19,21,23,25,27,29,31,33,35,37,39,41,43,45,47,49,-1,51,-1,-1,53,55,57,59,61,63,-1,65,67,69,71,73,75,77,79,81,-1,83,85,87,-1,-1,-1,89,91,93,95,97,-1,-1,-1,-1,-1,-1,-1,-1,-1,-1,-1,-1,-1,-1,-1,-1,-1,-1,-1,-1,-1,-1,-1,-1,-1,-1,-1,-1,-1,-1,-1,-1,-1,-1,-1,-1,-1,-1,-1,-1,-1,-1],"loss_changes":[4.8946027E-2,2.1926586E-2,2.35437E-2,4.276066E-2,4.295813E-2,7.351594E-2,1.906537E-2,3.6095574E-2,3.4724735E-2,8.2402684E-2,2.5303494E-2,9.3485475E-2,1.3848051E-2,1.7302651E-3,9.174032E-3,3.06523E-2,2.6144236E-2,4.6919264E-2,5.5695966E-2,4.011667E-2,6.535886E-2,7.344443E-2,4.3585084E-2,1.1853829E-2,1.2815453E-2,0E0,5.1805638E-2,0E0,0E0,8.520121E-3,4.4092285E-3,3.9740253E-2,6.1804168E-2,3.904529E-3,4.0411204E-3,0E0,6.612173E-2,7.492778E-2,5.263459E-3,3.1960882E-2,2.118148E-3,4.9489647E-2,3.363905E-3,7.201978E-2,1.16257146E-1,0E0,2.807589E-2,4.9387958E-2,1.8713895E-2,0E0,0E0,0E0,8.339539E-3,2.1548239E-3,4.1189436E-3,1.9360182E-3,4.3233735E-3,0E0,0E0,0E0,0E0,0E0,0E0,0E0,0E0,0E0,0E0,0E0,0E0,0E0,0E0,0E0,0E0,0E0,0E0,0E0,0E0,0E0,0E0,0E0,0E0,0E0,0E0,0E0,0E0,0E0,0E0,0E0,0E0,0E0,0E0,0E0,0E0,0E0,0E0,0E0,0E0,0E0,0E0],"parents":[2147483647,0,0,1,1,2,2,3,3,4,4,5,5,6,6,7,7,8,8,9,9,10,10,11,11,12,12,13,13,14,14,15,15,16,16,17,17,18,18,19,19,20,20,21,21,22,22,23,23,24,24,26,26,29,29,30,30,31,31,32,32,33,33,34,34,36,36,37,37,38,38,39,39,40,40,41,41,42,42,43,43,44,44,46,46,47,47,48,48,52,52,53,53,54,54,55,55,56,56],"right_children":[2,4,6,8,10,12,14,16,18,20,22,24,26,28,30,32,34,36,38,40,42,44,46,48,50,-1,52,-1,-1,54,56,58,60,62,64,-1,66,68,70,72,74,76,78,80,82,-1,84,86,88,-1,-1,-1,90,92,94,96,98,-1,-1,-1,-1,-1,-1,-1,-1,-1,-1,-1,-1,-1,-1,-1,-1,-1,-1,-1,-1,-1,-1,-1,-1,-1,-1,-1,-1,-1,-1,-1,-1,-1,-1,-1,-1,-1,-1,-1,-1,-1,-1],"split_conditions":[1.346E1,3.1604E4,9E0,2.4524E4,3.6198E4,3E4,1.37E1,2.2517E4,5.71E0,3.5934E4,9.54E0,2.5E4,1.37E1,1.36E1,5.9E4,9.85E0,1.26E0,2.48E4,1E0,3.5775E4,9E0,9.4E0,9.83E0,1.2479E4,2.9223E4,4.0646482E-2,1.489E1,-4.380727E-3,-2.582481E-2,5.0024E4,2.539E1,8.89E0,1.021E1,1.1E1,4.6E0,4.7914196E-2,5.7E0,8E0,6.87E0,1E0,4.89E0,6.82E0,3.6054E4,7.7E0,1E0,-5.2714135E-2,9.94E0,7E0,2.3E4,-1.3437653E-2,-5.7895664E-2,-2.8683616E-2,3.596E1,1.861E1,1.4E1,1.4E1,9E4,6.747968E-4,2.5908805E-2,-4.3064296E-2,1.1043585E-2,-9.654038E-3,6.25155E-3,-5.1722363E-2,-1.0864163E-2,5.942547E-3,-5.2132275E-2,-1.706779E-2,5.9626583E-2,-1.8985106E-2,4.3602707E-3,-1.4673187E-2,1.9469071E-2,6.8260436E-3,3.4285426E-2,-1.0709775E-2,-1.0523601E-1,2.469206E-3,-1.5553714E-2,2.7078353E-3,-2.2909189E-2,-1.6516149E-2,5.1554468E-2,1.4292069E-2,-1.20391855E-2,2.7616883E-2,-2.6820278E-2,2.901454E-2,-3.0909542E-3,1.0810853E-2,4.6644405E-2,-6.4444547E-3,5.718756E-3,1.8746138E-3,2.5478626E-2,4.506612E-3,-4.3226625E-3,-1.8263817E-3,1.5382863E-2],"split_indices":[0,1,6,1,1,1,0,1,0,1,0,1,0,0,1,0,0,1,4,1,6,0,0,1,1,0,0,0,0,1,0,0,0,6,0,0,0,6,0,4,0,0,1,0,2,0,0,6,1,0,0,0,0,0,0,0,1,0,0,0,0,0,0,0,0,0,0,0,0,0,0,0,0,0,0,0,0,0,0,0,0,0,0,0,0,0,0,0,0,0,0,0,0,0,0,0,0,0,0],"split_type":[0,0,0,0,0,0,0,0,0,0,0,0,0,0,0,0,0,0,0,0,0,0,0,0,0,0,0,0,0,0,0,0,0,0,0,0,0,0,0,0,0,0,0,0,0,0,0,0,0,0,0,0,0,0,0,0,0,0,0,0,0,0,0,0,0,0,0,0,0,0,0,0,0,0,0,0,0,0,0,0,0,0,0,0,0,0,0,0,0,0,0,0,0,0,0,0,0,0,0],"sum_hessian":[2.99E2,2.49E2,5E1,1.32E2,1.17E2,2.5E1,2.5E1,1.09E2,2.3E1,2.5E1,9.2E1,1.4E1,1.1E1,2E0,2.3E1,1E2,9E0,1.6E1,7E0,2E1,5E0,7.4E1,1.8E1,1.1E1,3E0,7E0,4E0,1E0,1E0,8E0,1.5E1,9.4E1,6E0,7E0,2E0,1E0,1.5E1,5E0,2E0,1.8E1,2E0,2E0,3E0,6.6E1,8E0,1E0,1.7E1,4E0,7E0,2E0,1E0,1E0,3E0,4E0,4E0,1.1E1,4E0,8.9E1,5E0,3E0,3E0,6E0,1E0,1E0,1E0,1.4E1,1E0,1E0,4E0,1E0,1E0,1.6E1,2E0,1E0,1E0,1E0,1E0,1E0,2E0,5.5E1,1.1E1,3E0,5E0,4E0,1.3E1,2E0,2E0,5E0,2E0,2E0,1E0,1E0,3E0,1E0,3E0,2E0,9E0,2E0,2E0],"tree_param":{"num_deleted":"0","num_feature":"7","num_nodes":"99","size_leaf_vector":"1"}},{"base_weights":[1.3640077E-3,-7.599182E-4,5.7234418E-2,2.6144565E-3,-2.2544084E-2,7.4446544E-2,2.1690559E-2,-2.084467E-3,2.0727325E-2,-1.1398054E-1,1.0195312E-3,4.280122E-2,3.9647773E-2,-4.8700967E-3,4.102103E-2,8.075863E-4,-9.62108E-2,3.0701725E-2,-1.1557543E-2,-7.5024166E-3,-4.4466857E-2,8.029011E-2,-1.621427E-2,2.6970292E-2,1.5401077E-2,-4.111004E-3,1.9194604E-3,1.993003E-2,-1.4705659E-3,-1.1622126E-3,3.8375616E-2,-6.0351375E-3,-1.2922835E-1,9.509181E-2,1.4161651E-2,-1.1505401E-1,3.09968E-2,4.2228252E-4,-3.7983702E-3,-8.232018E-2,1.4570886E-2,-9.448242E-3,1.0499526E-2,2.0997973E-4,-2.1507386E-2,-8.348966E-3,-4.6125364E-2,1.2731366E-2,6.9550395E-2,-1.6004125E-2,9.341823E-3,-1.2340165E-2,-5.0522164E-2,1.8265858E-2,2.7685167E-4,-7.526901E-4,-4.053285E-2,5.745335E-2,-8.923258E-4],"categories":[],"categories_nodes":[],"categories_segments":[],"categories_sizes":[],"default_left":[0,0,0,0,0,0,0,0,0,0,0,0,0,0,0,0,0,0,0,0,0,0,0,0,0,0,0,0,0,0,0,0,0,0,0,0,0,0,0,0,0,0,0,0,0,0,0,0,0,0,0,0,0,0,0,0,0,0,0],"id":22,"left_children":[1,3,5,7,9,11,13,15,17,19,21,23,-1,25,27,29,31,33,35,37,-1,-1,39,-1,41,-1,-1,-1,-1,43,-1,-1,45,47,49,51,53,-1,-1,55,57,-1,-1,-1,-1,-1,-1,-1,-1,-1,-1,-1,-1,-1,-1,-1,-1,-1,-1],"loss_changes":[3.5642873E-2,2.1376243E-2,5.1148497E-3,2.1491176E-2,8.414457E-2,7.1277805E-3,2.766926E-3,5.479359E-2,1.7099988E-2,2.805642E-2,1.513723E-1,6.358669E-3,0E0,3.8628382E-4,3.8266843E-3,4.922381E-2,1.2474861E-2,4.1254014E-2,6.0821213E-2,1.5571761E-4,0E0,0E0,6.4286985E-2,0E0,5.697353E-3,0E0,0E0,0E0,0E0,2.552924E-2,0E0,0E0,5.6674406E-3,4.7761805E-2,3.9484043E-2,8.848257E-3,8.932736E-3,0E0,0E0,4.179281E-2,6.8868E-2,0E0,0E0,0E0,0E0,0E0,0E0,0E0,0E0,0E0,0E0,0E0,0E0,0E0,0E0,0E0,0E0,0E0,0E0],"parents":[2147483647,0,0,1,1,2,2,3,3,4,4,5,5,6,6,7,7,8,8,9,9,10,10,11,11,13,13,14,14,15,15,16,16,17,17,18,18,19,19,22,22,24,24,29,29,32,32,33,33,34,34,35,35,36,36,39,39,40,40],"right_children":[2,4,6,8,10,12,14,16,18,20,22,24,-1,26,28,30,32,34,36,38,-1,-1,40,-1,42,-1,-1,-1,-1,44,-1,-1,46,48,50,52,54,-1,-1,56,58,-1,-1,-1,-1,-1,-1,-1,-1,-1,-1,-1,-1,-1,-1,-1,-1,-1,-1],"split_conditions":[2.539E1,6E4,4.8E4,4.4E4,6.1381E4,4.1442E4,9E4,4.3E4,9.94E0,7.87E-1,6.2E4,1.5001E4,3.9647773E-2,3.596E1,1.27E5,4.2367E4,8E0,4.5078E4,1.079E1,5.2E-1,-4.4466857E-2,8.029011E-2,7.27E0,2.6970292E-2,3.061E1,-4.111004E-3,1.9194604E-3,1.993003E-2,-1.4705659E-3,4.0588E4,3.8375616E-2,-6.0351375E-3,5.8E0,8.1E0,4.8E4,4.5078E4,1.1E1,4.2228252E-4,-3.7983702E-3,1.17E0,7.7E0,-9.448242E-3,1.0499526E-2,2.0997973E-4,-2.1507386E-2,-8.348966E-3,-4.6125364E-2,1.2731366E-2,6.9550395E-2,-1.6004125E-2,9.341823E-3,-1.2340165E-2,-5.0522164E-2,1.8265858E-2,2.7685167E-4,-7.526901E-4,-4.053285E-2,5.745335E-2,-8.923258E-4],"split_indices":[0,1,1,1,1,1,1,1,0,0,1,1,0,0,1,1,6,1,0,0,0,0,0,0,0,0,0,0,0,1,0,0,0,0,1,1,6,0,0,0,0,0,0,0,0,0,0,0,0,0,0,0,0,0,0,0,0,0,0],"split_type":[0,0,0,0,0,0,0,0,0,0,0,0,0,0,0,0,0,0,0,0,0,0,0,0,0,0,0,0,0,0,0,0,0,0,0,0,0,0,0,0,0,0,0,0,0,0,0,0,0,0,0,0,0,0,0,0,0,0,0],"sum_hessian":[2.99E2,2.89E2,1E1,2.51E2,3.8E1,6E0,4E0,2E2,5.1E1,7E0,3.1E1,5E0,1E0,2E0,2E0,1.95E2,5E0,3.9E1,1.2E1,2E0,5E0,1E0,3E1,1E0,4E0,1E0,1E0,1E0,1E0,1.93E2,2E0,2E0,3E0,7E0,3.2E1,3E0,9E0,1E0,1E0,9E0,2.1E1,1E0,3E0,1.89E2,4E0,1E0,2E0,6E0,1E0,6E0,2.6E1,2E0,1E0,4E0,5E0,4E0,5E0,1E0,2E1],"tree_param":{"num_deleted":"0","num_feature":"7","num_nodes":"59","size_leaf_vector":"1"}},{"base_weights":[1.3532883E-3,-4.0916013E-4,4.7694813E-2,-2.2081032E-2,1.9911965E-3,5.3297617E-2,-1.249981E-3,-1.3592533E-2,-3.9434083E-2,3.9626635E-3,-2.6654221E-2,6.490835E-2,2.8705215E-2,-2.0199314E-2,3.278126E-2,-1.8536618E-2,3.9564036E-3,1.683926E-3,3.2733124E-2,-4.335132E-2,-6.995545E-3,3.2955933E-2,3.3700563E-2,7.647276E-3,1.6940547E-2,-1.1386894E-2,-3.089303E-2,1.9020372E-3,1.2849529E-2,-6.151696E-5,2.401525E-3,2.4667958E-2,-1.3813587E-3,4.3316055E-2,-2.2076512E-2,-5.6514606E-2,9.293247E-3,1.4876606E-3,-7.3373527E-3,2.2924805E-2,2.986908E-3,-3.4943104E-3,1.7961502E-2,-7.2160815E-3,-1.3476105E-3,-1.02237E-2,-1.2886897E-3,3.5894217E-4,-3.866248E-4,1.6870126E-3,1.8639693E-2,1.6694332E-3,-3.7063786E-3,1.5128288E-2,-2.0041466E-3,-2.5707414E-2,-1.7744959E-3,-1.864494E-3,7.155526E-3,-8.030891E-3,6.548691E-3,6.451035E-3,1.6316414E-3],"categories":[],"categories_nodes":[],"categories_segments":[],"categories_sizes":[],"default_left":[0,0,0,0,0,0,0,0,0,0,0,0,0,0,0,0,0,0,0,0,0,0,0,0,0,0,0,0,0,0,0,0,0,0,0,0,0,0,0,0,0,0,0,0,0,0,0,0,0,0,0,0,0,0,0,0,0,0,0,0,0,0,0],"id":23,"left_children":[1,3,5,7,9,11,-1,13,15,17,19,21,23,25,27,-1,29,31,33,35,37,39,-1,41,-1,43,45,-1,-1,47,-1,49,51,53,-1,55,-1,57,-1,-1,59,-1,61,-1,-1,-1,-1,-1,-1,-1,-1,-1,-1,-1,-1,-1,-1,-1,-1,-1,-1,-1,-1],"loss_changes":[2.452188E-2,1.5129832E-2,3.418332E-3,3.7357304E-3,1.4901678E-2,9.92151E-4,0E0,7.096171E-3,8.974271E-3,1.607272E-2,5.2768635E-3,5.390303E-3,2.4913568E-3,1.4387364E-3,5.2568153E-4,0E0,6.556152E-5,1.6167723E-2,2.3441033E-2,1.0556383E-2,1.3696114E-3,6.284034E-3,0E0,1.0052612E-3,0E0,9.399726E-4,5.315165E-4,0E0,0E0,6.1734954E-6,0E0,1.8914914E-2,1.5541733E-2,6.3812993E-3,0E0,1.1303807E-2,0E0,1.3540761E-3,0E0,0E0,2.8270525E-3,0E0,1.6111124E-5,0E0,0E0,0E0,0E0,0E0,0E0,0E0,0E0,0E0,0E0,0E0,0E0,0E0,0E0,0E0,0E0,0E0,0E0,0E0,0E0],"parents":[2147483647,0,0,1,1,2,2,3,3,4,4,5,5,7,7,8,8,9,9,10,10,11,11,12,12,13,13,14,14,16,16,17,17,18,18,19,19,20,20,21,21,23,23,25,25,26,26,29,29,31,31,32,32,33,33,35,35,37,37,40,40,42,42],"right_children":[2,4,6,8,10,12,-1,14,16,18,20,22,24,26,28,-1,30,32,34,36,38,40,-1,42,-1,44,46,-1,-1,48,-1,50,52,54,-1,56,-1,58,-1,-1,60,-1,62,-1,-1,-1,-1,-1,-1,-1,-1,-1,-1,-1,-1,-1,-1,-1,-1,-1,-1,-1,-1],"split_conditions":[2.539E1,6.4E-1,1.27E5,3.2322E4,1.5E1,9E0,-1.249981E-3,3.0753E4,5.346E4,1E0,1E0,3.596E1,9E4,5.5E-1,5.2E-1,-1.8536618E-2,5.4E-1,7E0,1E0,2E1,1.04707E5,1.5001E4,3.3700563E-2,3.596E1,1.6940547E-2,4.1E3,2.587E4,1.9020372E-3,1.2849529E-2,5.2E-1,2.401525E-3,7.15E0,7.7E0,5.0024E4,-2.2076512E-2,1.248E1,9.293247E-3,8E-1,-7.3373527E-3,2.2924805E-2,3.061E1,-3.4943104E-3,4.1442E4,-7.2160815E-3,-1.3476105E-3,-1.02237E-2,-1.2886897E-3,3.5894217E-4,-3.866248E-4,1.6870126E-3,1.8639693E-2,1.6694332E-3,-3.7063786E-3,1.5128288E-2,-2.0041466E-3,-2.5707414E-2,-1.7744959E-3,-1.864494E-3,7.155526E-3,-8.030891E-3,6.548691E-3,6.451035E-3,1.6316414E-3],"split_indices":[0,0,1,1,6,6,0,1,1,4,3,0,1,0,0,0,0,6,2,6,1,1,0,0,0,1,1,0,0,0,0,0,0,1,0,0,0,0,0,0,0,0,1,0,0,0,0,0,0,0,0,0,0,0,0,0,0,0,0,0,0,0,0],"split_type":[0,0,0,0,0,0,0,0,0,0,0,0,0,0,0,0,0,0,0,0,0,0,0,0,0,0,0,0,0,0,0,0,0,0,0,0,0,0,0,0,0,0,0,0,0,0,0,0,0,0,0,0,0,0,0,0,0,0,0,0,0,0,0],"sum_hessian":[2.99E2,2.89E2,1E1,2.8E1,2.61E2,9E0,1E0,2E1,8E0,2.45E2,1.6E1,5E0,4E0,1.8E1,2E0,5E0,3E0,2.28E2,1.7E1,8E0,8E0,4E0,1E0,3E0,1E0,1.1E1,7E0,1E0,1E0,2E0,1E0,2.6E1,2.02E2,1.6E1,1E0,7E0,1E0,6E0,2E0,1E0,3E0,1E0,2E0,3E0,8E0,6E0,1E0,1E0,1E0,1.8E1,8E0,1.24E2,7.8E1,1.4E1,2E0,4E0,3E0,5E0,1E0,1E0,2E0,1E0,1E0],"tree_param":{"num_deleted":"0","num_feature":"7","num_nodes":"63","size_leaf_vector":"1"}},{"base_weights":[1.090756E-3,-3.95728E-3,1.8048055E-2,-2.6386334E-3,-4.62847E-2,-1.751419E-2,2.5094587E-2,-9.677273E-5,-4.525624E-2,-4.322734E-2,7.091999E-3,1.2781143E-1,1.914378E-2,-2.454094E-3,1.7044838E-1,-9.422243E-2,-1.3024329E-2,1.7509103E-2,-1.943034E-2,6.865597E-3,5.064955E-2,2.968846E-2,1.2758597E-2,2.6296245E-4,-8.400335E-2,7.899249E-3,6.880253E-2,-3.3778444E-2,-3.1099322E-3,2.296263E-2,-4.5138E-2,-5.4009676E-2,1.6861534E-2,-7.14736E-2,2.3021817E-2,-1.9522918E-3,7.4070864E-3,-1.7625601E-3,-3.4223873E-2,-6.008516E-3,4.8584964E-2,-2.4950339E-2,8.61311E-4,-6.2557417E-3,-4.8686888E-2,3.3197835E-2,3.0773762E-3],"categories":[],"categories_nodes":[],"categories_segments":[],"categories_sizes":[],"default_left":[0,0,0,0,0,0,0,0,0,0,0,0,0,0,0,0,0,0,0,0,0,0,0,0,0,0,0,0,0,0,0,0,0,0,0,0,0,0,0,0,0,0,0,0,0,0,0],"id":24,"left_children":[1,3,5,7,-1,9,11,13,15,-1,17,19,21,23,25,27,29,-1,31,-1,-1,-1,33,35,37,-1,-1,-1,-1,39,-1,41,-1,43,45,-1,-1,-1,-1,-1,-1,-1,-1,-1,-1,-1,-1],"loss_changes":[2.575174E-2,4.5581255E-2,1.7730257E-2,2.5019392E-2,0E0,3.8396806E-2,3.300559E-2,8.846281E-2,1.9290376E-2,0E0,1.6092317E-2,9.0485625E-3,2.7277848E-2,4.8103634E-2,1.942394E-2,6.535966E-3,4.7967985E-2,0E0,2.395901E-2,0E0,0E0,0E0,4.746361E-2,3.5057478E-2,1.5778355E-2,0E0,0E0,0E0,0E0,5.1045217E-2,0E0,1.0189984E-2,0E0,2.4199115E-2,5.255755E-2,0E0,0E0,0E0,0E0,0E0,0E0,0E0,0E0,0E0,0E0,0E0,0E0],"parents":[2147483647,0,0,1,1,2,2,3,3,5,5,6,6,7,7,8,8,10,10,11,11,12,12,13,13,14,14,15,15,16,16,18,18,22,22,23,23,24,24,29,29,31,31,33,33,34,34],"right_children":[2,4,6,8,-1,10,12,14,16,-1,18,20,22,24,26,28,30,-1,32,-1,-1,-1,34,36,38,-1,-1,-1,-1,40,-1,42,-1,44,46,-1,-1,-1,-1,-1,-1,-1,-1,-1,-1,-1,-1],"split_conditions":[1E1,9.95E0,1.9E4,6.3E4,-4.62847E-2,1.021E1,2.3E4,6.1381E4,7.2E4,-4.322734E-2,9.8E3,2.2E4,1.021E1,5.8242E4,8.01E0,6.79E0,7.7E0,1.7509103E-2,2.278E1,6.865597E-3,5.064955E-2,2.968846E-2,3E4,4.1E4,7.87E-1,7.899249E-3,6.880253E-2,-3.3778444E-2,-3.1099322E-3,7.27E0,-4.5138E-2,8E0,1.6861534E-2,2.9223E4,3.8488E4,-1.9522918E-3,7.4070864E-3,-1.7625601E-3,-3.4223873E-2,-6.008516E-3,4.8584964E-2,-2.4950339E-2,8.61311E-4,-6.2557417E-3,-4.8686888E-2,3.3197835E-2,3.0773762E-3],"split_indices":[0,0,1,1,0,0,1,1,1,0,1,1,0,1,0,0,0,0,0,0,0,0,1,1,0,0,0,0,0,0,0,6,0,1,1,0,0,0,0,0,0,0,0,0,0,0,0],"split_type":[0,0,0,0,0,0,0,0,0,0,0,0,0,0,0,0,0,0,0,0,0,0,0,0,0,0,0,0,0,0,0,0,0,0,0,0,0,0,0,0,0,0,0,0,0,0,0],"sum_hessian":[2.99E2,2.31E2,6.8E1,2.3E2,1E0,1.1E1,5.7E1,2.18E2,1.2E1,1E0,1E1,2E0,5.5E1,2.16E2,2E0,4E0,8E0,3E0,7E0,1E0,1E0,3E0,5.2E1,2.1E2,6E0,1E0,1E0,3E0,1E0,7E0,1E0,5E0,2E0,5E0,4.7E1,1.65E2,4.5E1,2E0,4E0,6E0,1E0,3E0,2E0,4E0,1E0,5E0,4.2E1],"tree_param":{"num_deleted":"0","num_feature":"7","num_nodes":"47","size_leaf_vector":"1"}},{"base_weights":[7.5027713E-4,-1.5045152E-3,2.3604454E-2,4.398656E-3,-6.7866375E-3,3.2401823E-2,-1.339525E-3,-1.0508766E-3,4.6248462E-2,-1.19784184E-1,-1.8954093E-3,1.7607609E-2,4.852724E-2,-1.0490377E-2,1.740869E-2,2.2221222E-3,-4.551412E-2,4.0427777E-3,9.390599E-2,5.377516E-3,-1.5091105E-1,7.305495E-2,-6.3894503E-3,1.957941E-2,7.3419916E-3,2.7138019E-2,1.2484153E-2,-5.4250006E-3,-5.3551197E-3,8.161497E-3,-3.2758713E-4,-3.2116347E-3,3.400656E-2,-1.0620797E-1,-7.581515E-3,2.4079662E-2,-1.6802663E-2,4.1306652E-2,-1.03673935E-2,-1.3807655E-2,-4.9687818E-2,-6.5647066E-4,1.1741309E-1,-3.2221783E-2,4.944629E-4,-2.794528E-2,2.4067879E-2,-1.9634962E-3,2.7586302E-2,5.5652857E-4,-4.350257E-3,8.5196964E-4,-1.8204166E-2,1.1985161E-3,2.9769862E-2,-3.8405121E-3,-4.3953076E-2,-6.9232434E-3,4.682082E-3,-4.101083E-3,1.6140914E-2,5.847514E-5,-8.459806E-3,5.488873E-4,-5.2142143E-3,1.1214942E-2,-7.7392166E-3,5.6779075E-2,1.9274713E-3,-1.9726842E-3,-3.7548546E-2,2.2837197E-2,-1.2009828E-3,-1.1630058E-3,-1.502266E-2,1.3489342E-2,2.8824806E-3,1.5024663E-3,-3.4317973E-3,1.3937903E-2,-1.524067E-3,-1.1761189E-4,5.1033497E-4],"categories":[],"categories_nodes":[],"categories_segments":[],"categories_sizes":[],"default_left":[0,0,0,0,0,0,0,0,0,0,0,0,0,0,0,0,0,0,0,0,0,0,0,0,0,0,0,0,0,0,0,0,0,0,0,0,0,0,0,0,0,0,0,0,0,0,0,0,0,0,0,0,0,0,0,0,0,0,0,0,0,0,0,0,0,0,0,0,0,0,0,0,0,0,0,0,0,0,0,0,0,0,0],"id":25,"left_children":[1,3,5,7,9,11,13,15,17,19,21,23,25,27,29,31,33,35,37,-1,39,41,43,-1,45,-1,47,-1,49,-1,-1,51,53,55,57,59,61,-1,63,-1,-1,65,67,69,71,73,75,77,79,81,-1,-1,-1,-1,-1,-1,-1,-1,-1,-1,-1,-1,-1,-1,-1,-1,-1,-1,-1,-1,-1,-1,-1,-1,-1,-1,-1,-1,-1,-1,-1,-1,-1],"loss_changes":[1.5494939E-2,8.57352E-3,5.968323E-3,2.9696649E-2,7.9913996E-2,3.9168075E-3,1.5551209E-3,1.6982403E-2,2.9791642E-2,2.8423816E-2,4.762298E-2,5.391581E-3,1.2473181E-2,1.3711234E-4,5.7342043E-4,1.8934488E-2,1.7612988E-2,4.1637016E-3,3.3385165E-2,0E0,9.392947E-5,2.623469E-2,2.3666995E-2,0E0,7.164904E-3,0E0,1.3633089E-3,0E0,2.7840203E-4,0E0,0E0,3.2863177E-2,3.0924192E-2,9.417873E-3,2.5161332E-3,6.345782E-3,9.7407773E-4,0E0,2.8842498E-4,0E0,0E0,4.78979E-3,3.865677E-2,6.591654E-2,3.6361907E-2,1.9364492E-3,1.985222E-3,3.215418E-4,2.085608E-3,5.009784E-6,0E0,0E0,0E0,0E0,0E0,0E0,0E0,0E0,0E0,0E0,0E0,0E0,0E0,0E0,0E0,0E0,0E0,0E0,0E0,0E0,0E0,0E0,0E0,0E0,0E0,0E0,0E0,0E0,0E0,0E0,0E0,0E0,0E0],"parents":[2147483647,0,0,1,1,2,2,3,3,4,4,5,5,6,6,7,7,8,8,9,9,10,10,11,11,12,12,13,13,14,14,15,15,16,16,17,17,18,18,20,20,21,21,22,22,24,24,26,26,28,28,31,31,32,32,33,33,34,34,35,35,36,36,38,38,41,41,42,42,43,43,44,44,45,45,46,46,47,47,48,48,49,49],"right_children":[2,4,6,8,10,12,14,16,18,20,22,24,26,28,30,32,34,36,38,-1,40,42,44,-1,46,-1,48,-1,50,-1,-1,52,54,56,58,60,62,-1,64,-1,-1,66,68,70,72,74,76,78,80,82,-1,-1,-1,-1,-1,-1,-1,-1,-1,-1,-1,-1,-1,-1,-1,-1,-1,-1,-1,-1,-1,-1,-1,-1,-1,-1,-1,-1,-1,-1,-1,-1,-1],"split_conditions":[1.609E1,2.82E4,1.2E1,2.4678E4,3E4,4.5078E4,1E0,2.35E4,5.7E0,8.7E-1,3.1604E4,9E3,5.9E4,1.861E1,5.0456E4,2E4,2.4E4,2.587E4,1.021E1,5.377516E-3,4.6E0,1.17E0,3.6198E4,1.957941E-2,2.045E1,2.7138019E-2,9E4,-5.4250006E-3,2.315E1,8.161497E-3,-3.2758713E-4,9.85E0,8.89E0,1.26E0,9.5E-1,8.7E-1,9.9E-1,4.1306652E-2,2.5E4,-1.3807655E-2,-4.9687818E-2,5.7E-1,6.4E0,3.6E4,3.86E4,1.864E1,7E0,8E4,1.27E5,8.3E4,-4.350257E-3,8.5196964E-4,-1.8204166E-2,1.1985161E-3,2.9769862E-2,-3.8405121E-3,-4.3953076E-2,-6.9232434E-3,4.682082E-3,-4.101083E-3,1.6140914E-2,5.847514E-5,-8.459806E-3,5.488873E-4,-5.2142143E-3,1.1214942E-2,-7.7392166E-3,5.6779075E-2,1.9274713E-3,-1.9726842E-3,-3.7548546E-2,2.2837197E-2,-1.2009828E-3,-1.1630058E-3,-1.502266E-2,1.3489342E-2,2.8824806E-3,1.5024663E-3,-3.4317973E-3,1.3937903E-2,-1.524067E-3,-1.1761189E-4,5.1033497E-4],"split_indices":[0,1,6,1,1,1,2,1,0,0,1,1,1,0,1,1,1,1,0,0,0,0,1,0,0,0,1,0,0,0,0,0,0,0,0,0,0,0,1,0,0,0,0,1,1,0,6,1,1,1,0,0,0,0,0,0,0,0,0,0,0,0,0,0,0,0,0,0,0,0,0,0,0,0,0,0,0,0,0,0,0,0,0],"split_type":[0,0,0,0,0,0,0,0,0,0,0,0,0,0,0,0,0,0,0,0,0,0,0,0,0,0,0,0,0,0,0,0,0,0,0,0,0,0,0,0,0,0,0,0,0,0,0,0,0,0,0,0,0,0,0,0,0,0,0,0,0,0,0,0,0,0,0,0,0,0,0,0,0,0,0,0,0,0,0,0,0,0,0],"sum_hessian":[2.99E2,2.73E2,2.6E1,1.29E2,1.44E2,1.9E1,7E0,1.15E2,1.4E1,5E0,1.39E2,1.1E1,8E0,5E0,2E0,1.08E2,7E0,8E0,6E0,1E0,4E0,7E0,1.32E2,1E0,1E1,3E0,5E0,1E0,4E0,1E0,1E0,9.3E1,1.5E1,2E0,5E0,4E0,4E0,4E0,2E0,1E0,3E0,3E0,4E0,2.7E1,1.05E2,3E0,7E0,3E0,2E0,3E0,1E0,8.5E1,8E0,1.1E1,4E0,1E0,1E0,3E0,2E0,2E0,2E0,2E0,2E0,1E0,1E0,1E0,2E0,2E0,2E0,2.2E1,5E0,5E0,1E2,2E0,1E0,2E0,5E0,2E0,1E0,1E0,1E0,2E0,1E0],"tree_param":{"num_deleted":"0","num_feature":"7","num_nodes":"83","size_leaf_vector":"1"}},{"base_weights":[6.7815237E-4,-2.499931E-3,1.3702187E-2,-7.061379E-4,-2.2375727E-2,3.0128647E-2,1.0475368E-2,1.3241725E-3,-3.360532E-2,-3.826311E-2,-1.0127746E-2,2.354463E-2,-3.4057766E-3,-7.542831E-4,1.4568186E-1,-1.5078762E-2,-9.033426E-2,-5.8538534E-2,6.684367E-3,5.8639525E-3,5.3550895E-2,-4.578058E-2,7.3298314E-3,1.3928617E-3,-6.291373E-2,6.8944935E-3,5.8662344E-2,-4.4238236E-2,4.1477397E-2,-3.8187146E-2,-2.4632693E-3,1.2187815E-2,-9.348619E-2,4.3538067E-2,-4.165387E-2,3.1043211E-2,-2.8359942E-2,4.0093426E-2,2.0902846E-2,2.3029805E-3,-5.8007337E-2,1.873864E-2,4.542619E-4,-1.2809392E-3,6.9604153E-3,-1.1698514E-3,-2.5721855E-2,-3.6743918E-4,-2.6102014E-2,-3.7657738E-2,3.948927E-4,4.45911E-3,4.0939953E-2,-3.1521678E-2,9.653396E-3,3.1438484E-3,3.8586617E-2,-1.5060835E-2,9.617996E-3,-1.3605166E-2,1.0456002E-2,-2.4746658E-2,-4.2570117E-3,-5.668831E-4,1.0685749E-2,-2.6123733E-3,2.5643827E-3],"categories":[],"categories_nodes":[],"categories_segments":[],"categories_sizes":[],"default_left":[0,0,0,0,0,0,0,0,0,0,0,0,0,0,0,0,0,0,0,0,0,0,0,0,0,0,0,0,0,0,0,0,0,0,0,0,0,0,0,0,0,0,0,0,0,0,0,0,0,0,0,0,0,0,0,0,0,0,0,0,0,0,0,0,0,0,0],"id":26,"left_children":[1,3,5,7,9,-1,11,13,15,-1,17,19,21,23,25,27,29,31,33,35,37,39,41,43,45,-1,-1,47,-1,-1,-1,-1,49,51,53,55,57,-1,59,-1,61,63,65,-1,-1,-1,-1,-1,-1,-1,-1,-1,-1,-1,-1,-1,-1,-1,-1,-1,-1,-1,-1,-1,-1,-1,-1],"loss_changes":[1.2451695E-2,8.612241E-3,1.5459184E-2,1.4939907E-2,2.4470175E-2,0E0,1.06023345E-2,6.341855E-2,1.2300767E-2,0E0,1.5855156E-2,1.56019125E-2,1.3528223E-2,2.7981885E-2,1.3859376E-2,5.529969E-2,8.05974E-3,2.1125827E-2,2.8535174E-2,1.811503E-2,2.5970425E-2,4.3669473E-3,1.8740973E-3,2.5168395E-2,9.094983E-3,0E0,0E0,1.8289626E-2,0E0,0E0,0E0,0E0,1.2314968E-2,2.195358E-2,3.6157098E-2,2.273111E-2,1.3487184E-2,0E0,9.899026E-3,0E0,4.193049E-3,3.2012472E-3,1.2609258E-3,